{"learner":{"attributes":{"scikit_learn":"{\"_estimator_type\": \"regressor\"}"},"feature_names":["Open AAPL","High AAPL","Low AAPL","Close AAPL","Volume AAPL"],"feature_types":["float","float","float","float","float"],"gradient_booster":{"model":{"gbtree_model_param":{"num_parallel_tree":"1","num_trees":"300"},"iteration_indptr":[0,1,2,3,4,5,6,7,8,9,10,11,12,13,14,15,16,17,18,19,20,21,22,23,24,25,26,27,28,29,30,31,32,33,34,35,36,37,38,39,40,41,42,43,44,45,46,47,48,49,50,51,52,53,54,55,56,57,58,59,60,61,62,63,64,65,66,67,68,69,70,71,72,73,74,75,76,77,78,79,80,81,82,83,84,85,86,87,88,89,90,91,92,93,94,95,96,97,98,99,100,101,102,103,104,105,106,107,108,109,110,111,112,113,114,115,116,117,118,119,120,121,122,123,124,125,126,127,128,129,130,131,132,133,134,135,136,137,138,139,140,141,142,143,144,145,146,147,148,149,150,151,152,153,154,155,156,157,158,159,160,161,162,163,164,165,166,167,168,169,170,171,172,173,174,175,176,177,178,179,180,181,182,183,184,185,186,187,188,189,190,191,192,193,194,195,196,197,198,199,200,201,202,203,204,205,206,207,208,209,210,211,212,213,214,215,216,217,218,219,220,221,222,223,224,225,226,227,228,229,230,231,232,233,234,235,236,237,238,239,240,241,242,243,244,245,246,247,248,249,250,251,252,253,254,255,256,257,258,259,260,261,262,263,264,265,266,267,268,269,270,271,272,273,274,275,276,277,278,279,280,281,282,283,284,285,286,287,288,289,290,291,292,293,294,295,296,297,298,299,300],"tree_info":[0,0,0,0,0,0,0,0,0,0,0,0,0,0,0,0,0,0,0,0,0,0,0,0,0,0,0,0,0,0,0,0,0,0,0,0,0,0,0,0,0,0,0,0,0,0,0,0,0,0,0,0,0,0,0,0,0,0,0,0,0,0,0,0,0,0,0,0,0,0,0,0,0,0,0,0,0,0,0,0,0,0,0,0,0,0,0,0,0,0,0,0,0,0,0,0,0,0,0,0,0,0,0,0,0,0,0,0,0,0,0,0,0,0,0,0,0,0,0,0,0,0,0,0,0,0,0,0,0,0,0,0,0,0,0,0,0,0,0,0,0,0,0,0,0,0,0,0,0,0,0,0,0,0,0,0,0,0,0,0,0,0,0,0,0,0,0,0,0,0,0,0,0,0,0,0,0,0,0,0,0,0,0,0,0,0,0,0,0,0,0,0,0,0,0,0,0,0,0,0,0,0,0,0,0,0,0,0,0,0,0,0,0,0,0,0,0,0,0,0,0,0,0,0,0,0,0,0,0,0,0,0,0,0,0,0,0,0,0,0,0,0,0,0,0,0,0,0,0,0,0,0,0,0,0,0,0,0,0,0,0,0,0,0,0,0,0,0,0,0,0,0,0,0,0,0,0,0,0,0,0,0,0,0,0,0,0,0,0,0,0,0,0,0,0,0,0,0,0,0],"trees":[{"base_weights":[4.2888727E-3,-8.2032883E-1,4.8634464E-1,-1.4777784E0,-4.8240045E-1,2.3977855E-1,1.0256618E0,-7.8085676E-2,-5.76106E-2,-6.554114E-1,-3.4161177E-1,1.581459E-2,4.5828274E-1,8.34671E-1,7.593023E-2,-3.6695257E-2,-2.821568E-2,-4.090681E-1,-2.480437E-1,-5.955565E-2,1.2419535E-1,3.3660778E-1,5.2578795E-1,3.5427283E-2,4.5783926E-2,-2.23727E-2,-1.7537393E-2,-1.383396E-2,-9.495545E-3,-1.0914331E-1,-1.2171087E-2,7.164212E-2,8.87824E-3,1.3537019E-2,1.8338071E-2,2.3028051E-2,2.7821813E-2,-6.565813E-3,-3.9000348E-3,-1.8547842E-3,2.0591487E-4,2.4998365E-3,4.8745745E-3],"categories":[],"categories_nodes":[],"categories_segments":[],"categories_sizes":[],"default_left":[0,0,0,0,0,0,0,0,0,0,0,0,0,0,0,0,0,0,0,0,0,0,0,0,0,0,0,0,0,0,0,0,0,0,0,0,0,0,0,0,0,0,0],"id":0,"left_children":[1,3,5,7,9,11,13,-1,-1,15,17,19,21,23,-1,-1,-1,25,27,29,31,33,35,-1,-1,-1,-1,-1,-1,37,39,41,-1,-1,-1,-1,-1,-1,-1,-1,-1,-1,-1],"loss_changes":[3.7604755E2,7.682477E1,7.9141525E1,1.4250793E0,5.4271545E0,2.0105888E1,1.6338074E1,0E0,0E0,3.223648E-1,7.190628E-1,1.6738081E0,1.5314636E0,7.509384E-1,0E0,0E0,0E0,8.717537E-3,4.2341232E-2,2.8298405E-1,2.2287679E-1,5.3635597E-2,7.6065063E-3,0E0,0E0,0E0,0E0,0E0,0E0,3.0498147E-2,2.573117E-2,1.974462E-2,0E0,0E0,0E0,0E0,0E0,0E0,0E0,0E0,0E0,0E0,0E0],"parents":[2147483647,0,0,1,1,2,2,3,3,4,4,5,5,6,6,9,9,10,10,11,11,12,12,13,13,17,17,18,18,19,19,20,20,21,21,22,22,29,29,30,30,31,31],"right_children":[2,4,6,8,10,12,14,-1,-1,16,18,20,22,24,-1,-1,-1,26,28,30,32,34,36,-1,-1,-1,-1,-1,-1,38,40,42,-1,-1,-1,-1,-1,-1,-1,-1,-1,-1,-1],"split_conditions":[-5.070662E-1,-1.2692007E0,2.9301253E-1,-1.6729386E0,-8.4281546E-1,-9.381465E-2,7.506077E-1,-7.8085676E-2,-5.76106E-2,-9.906242E-1,-6.6748637E-1,-3.0839655E-1,9.2977375E-2,4.7200084E-1,7.593023E-2,-3.6695257E-2,-2.821568E-2,-7.386806E-1,-5.706803E-1,-4.0214714E-1,-2.1539088E-1,-1.7563777E-2,1.6307259E-1,3.5427283E-2,4.5783926E-2,-2.23727E-2,-1.7537393E-2,-1.383396E-2,-9.495545E-3,-4.4748312E-1,-3.5651472E-1,-2.6494834E-1,8.87824E-3,1.3537019E-2,1.8338071E-2,2.3028051E-2,2.7821813E-2,-6.565813E-3,-3.9000348E-3,-1.8547842E-3,2.0591487E-4,2.4998365E-3,4.8745745E-3],"split_indices":[3,0,3,3,3,3,0,0,0,3,3,3,3,3,0,0,0,3,3,3,3,3,3,0,0,0,0,0,0,3,3,3,0,0,0,0,0,0,0,0,0,0,0],"split_type":[0,0,0,0,0,0,0,0,0,0,0,0,0,0,0,0,0,0,0,0,0,0,0,0,0,0,0,0,0,0,0,0,0,0,0,0,0,0,0,0,0,0,0],"sum_hessian":[9.44E2,3.48E2,5.96E2,1.17E2,2.31E2,4.1E2,1.86E2,9E1,2.7E1,1.02E2,1.29E2,2.03E2,2.07E2,1.36E2,5E1,5.1E1,5.1E1,7.3E1,5.6E1,1.2E2,8.3E1,7.6E1,1.31E2,5.7E1,7.9E1,4E1,3.3E1,3.5E1,2.1E1,5.8E1,6.2E1,4.3E1,4E1,2.7E1,4.9E1,4.7E1,8.4E1,3.2E1,2.6E1,2.4E1,3.8E1,2.5E1,1.8E1],"tree_param":{"num_deleted":"0","num_feature":"5","num_nodes":"43","size_leaf_vector":"1"}},{"base_weights":[1.080372E-2,-7.542485E-1,4.785372E-1,-1.3903104E0,-4.423764E-1,2.2978093E-1,9.90628E-1,-7.379949E-2,-5.411882E-2,-5.943997E-1,-2.8920987E-1,1.7882535E-2,4.4050696E-1,8.011956E-1,7.187935E-2,-3.421461E-2,-2.5181675E-2,-1.73561E-2,-1.9703041E-1,-4.528887E-2,1.18222766E-1,3.2663068E-1,2.519973E-2,3.4195047E-2,4.366435E-2,-1.1202298E-2,-7.5170407E-3,-8.545316E-2,-3.0309493E-3,7.29091E-2,8.752923E-3,1.2714006E-2,1.7547958E-2,-5.553794E-3,-3.1256739E-3,-8.320895E-4,8.3449495E-4,2.4817225E-3,4.696382E-3],"categories":[],"categories_nodes":[],"categories_segments":[],"categories_sizes":[],"default_left":[0,0,0,0,0,0,0,0,0,0,0,0,0,0,0,0,0,0,0,0,0,0,0,0,0,0,0,0,0,0,0,0,0,0,0,0,0,0,0],"id":1,"left_children":[1,3,5,7,9,11,13,-1,-1,15,17,19,21,23,-1,-1,-1,-1,25,27,29,31,-1,-1,-1,-1,-1,33,35,37,-1,-1,-1,-1,-1,-1,-1,-1,-1],"loss_changes":[3.338683E2,6.960797E1,7.352876E1,1.4629059E0,5.393177E0,1.7451256E1,1.4850555E1,0E0,0E0,6.2631226E-1,5.7754135E-1,1.2477262E0,1.2524071E0,5.443039E-1,0E0,0E0,0E0,0E0,2.8122663E-2,2.0510937E-1,1.8296981E-1,3.925085E-2,0E0,0E0,0E0,0E0,0E0,2.9498458E-2,1.6382787E-2,1.6862735E-2,0E0,0E0,0E0,0E0,0E0,0E0,0E0,0E0,0E0],"parents":[2147483647,0,0,1,1,2,2,3,3,4,4,5,5,6,6,9,9,10,10,11,11,12,12,13,13,18,18,19,19,20,20,21,21,27,27,28,28,29,29],"right_children":[2,4,6,8,10,12,14,-1,-1,16,18,20,22,24,-1,-1,-1,-1,26,28,30,32,-1,-1,-1,-1,-1,34,36,38,-1,-1,-1,-1,-1,-1,-1,-1,-1],"split_conditions":[-4.866106E-1,-1.231212E0,3.0429342E-1,-1.6729386E0,-8.0404836E-1,-9.381465E-2,7.506077E-1,-7.379949E-2,-5.411882E-2,-9.5939493E-1,-6.23734E-1,-3.0523735E-1,9.939659E-2,4.9054867E-1,7.187935E-2,-3.421461E-2,-2.5181675E-2,-1.73561E-2,-5.3948545E-1,-3.8893077E-1,-1.9496202E-1,-1.7563777E-2,2.519973E-2,3.4195047E-2,4.366435E-2,-1.1202298E-2,-7.5170407E-3,-4.2854252E-1,-3.393733E-1,-2.6494834E-1,8.752923E-3,1.2714006E-2,1.7547958E-2,-5.553794E-3,-3.1256739E-3,-8.320895E-4,8.3449495E-4,2.4817225E-3,4.696382E-3],"split_indices":[3,3,3,3,3,3,0,0,0,3,3,3,3,3,0,0,0,0,3,3,3,3,0,0,0,0,0,3,3,3,0,0,0,0,0,0,0,0,0],"split_type":[0,0,0,0,0,0,0,0,0,0,0,0,0,0,0,0,0,0,0,0,0,0,0,0,0,0,0,0,0,0,0,0,0,0,0,0,0,0,0],"sum_hessian":[9.31E2,3.53E2,5.78E2,1.15E2,2.38E2,3.9E2,1.88E2,8.7E1,2.8E1,1.18E2,1.2E2,1.95E2,1.95E2,1.34E2,5.4E1,5.6E1,6.2E1,7.2E1,4.8E1,1.2E2,7.5E1,7.2E1,1.23E2,5.5E1,7.9E1,2.8E1,2E1,6.1E1,5.9E1,4.3E1,3.2E1,2.1E1,5.1E1,2.7E1,3.4E1,3.5E1,2.4E1,2.2E1,2.1E1],"tree_param":{"num_deleted":"0","num_feature":"5","num_nodes":"39","size_leaf_vector":"1"}},{"base_weights":[9.094879E-3,-7.388424E-1,4.197608E-1,-1.3383666E0,-4.4916415E-1,1.6580987E-1,8.5256076E-1,-7.0585236E-2,-5.3439166E-2,-6.015237E-1,-3.301951E-1,-7.184309E-3,3.7284443E-1,7.086905E-1,6.79663E-2,-3.3888455E-2,-2.6271878E-2,-1.9649236E-2,-2.4244803E-1,-6.914609E-2,7.809478E-2,2.7317786E-1,2.1739436E-2,2.932599E-2,4.0386286E-2,-1.333459E-2,-9.060002E-3,-1.12152144E-1,-3.2810584E-2,4.2674057E-2,6.28823E-3,1.0396084E-2,1.5064296E-2,-6.275944E-3,-4.010972E-3,-2.6850447E-3,-6.088282E-4,1.1821025E-3,2.9710326E-3],"categories":[],"categories_nodes":[],"categories_segments":[],"categories_sizes":[],"default_left":[0,0,0,0,0,0,0,0,0,0,0,0,0,0,0,0,0,0,0,0,0,0,0,0,0,0,0,0,0,0,0,0,0,0,0,0,0,0,0],"id":2,"left_children":[1,3,5,7,9,11,13,-1,-1,15,17,19,21,23,-1,-1,-1,-1,25,27,29,31,-1,-1,-1,-1,-1,33,35,37,-1,-1,-1,-1,-1,-1,-1,-1,-1],"loss_changes":[2.8596182E2,5.6709656E1,6.591451E1,6.0665894E-1,3.861618E0,1.3612674E1,1.5222336E1,0E0,0E0,2.0659256E-1,6.09951E-1,1.1044812E0,9.492874E-1,1.6436081E0,0E0,0E0,0E0,0E0,3.48289E-2,1.8540049E-1,1.4322102E-1,6.391811E-2,0E0,0E0,0E0,0E0,0E0,1.3406992E-2,2.8226517E-2,1.5168674E-2,0E0,0E0,0E0,0E0,0E0,0E0,0E0,0E0,0E0],"parents":[2147483647,0,0,1,1,2,2,3,3,4,4,5,5,6,6,9,9,10,10,11,11,12,12,13,13,18,18,19,19,20,20,21,21,27,27,28,28,29,29],"right_children":[2,4,6,8,10,12,14,-1,-1,16,18,20,22,24,-1,-1,-1,-1,26,28,30,32,-1,-1,-1,-1,-1,34,36,38,-1,-1,-1,-1,-1,-1,-1,-1,-1],"split_conditions":[-5.151212E-1,-1.4244367E0,2.1592617E-1,-1.758318E0,-8.580754E-1,-1.4485843E-1,7.506077E-1,-7.0585236E-2,-5.3439166E-2,-1.0180113E0,-6.91366E-1,-3.3548692E-1,5.071809E-2,4.2771393E-1,6.79663E-2,-3.3888455E-2,-2.6271878E-2,-1.9649236E-2,-5.898265E-1,-4.2153075E-1,-2.4480464E-1,-5.632975E-2,2.1739436E-2,2.932599E-2,4.0386286E-2,-1.333459E-2,-9.060002E-3,-4.5461345E-1,-3.7910232E-1,-2.9373348E-1,6.28823E-3,1.0396084E-2,1.5064296E-2,-6.275944E-3,-4.010972E-3,-2.6850447E-3,-6.088282E-4,1.1821025E-3,2.9710326E-3],"split_indices":[3,2,3,3,3,3,0,0,0,3,3,3,3,3,0,0,0,0,3,3,3,3,0,0,0,0,0,3,3,3,0,0,0,0,0,0,0,0,0],"split_type":[0,0,0,0,0,0,0,0,0,0,0,0,0,0,0,0,0,0,0,0,0,0,0,0,0,0,0,0,0,0,0,0,0,0,0,0,0,0,0],"sum_hessian":[9.29E2,3.29E2,6E2,1.06E2,2.23E2,3.79E2,2.21E2,8E1,2.6E1,9.6E1,1.27E2,2.07E2,1.72E2,1.74E2,4.7E1,4.4E1,5.2E1,7.2E1,5.5E1,1.2E2,8.7E1,6.8E1,1.04E2,8.1E1,9.3E1,3.7E1,1.8E1,5.4E1,6.6E1,5.1E1,3.6E1,2.3E1,4.5E1,3.6E1,1.8E1,3.2E1,3.4E1,2.5E1,2.6E1],"tree_param":{"num_deleted":"0","num_feature":"5","num_nodes":"39","size_leaf_vector":"1"}},{"base_weights":[-1.17931245E-2,-7.182968E-1,3.934442E-1,-1.2868469E0,-4.2348292E-1,1.6282076E-1,8.171136E-1,-6.7385785E-2,-4.9614474E-2,-5.777582E-1,-3.1832606E-1,-8.648848E-3,3.5565495E-1,6.734443E-1,6.4847335E-2,-3.1967524E-2,-2.4801794E-2,-1.9049732E-2,-2.4529421E-1,-6.35672E-2,8.0701575E-2,2.533778E-1,2.0579016E-2,2.872685E-2,3.850714E-2,-1.31740365E-2,-9.469093E-3,-1.1043629E-1,-2.8812362E-2,3.85696E-2,1.1605771E-1,9.870311E-3,1.406643E-2,-6.3163824E-3,-3.934591E-3,-2.445011E-3,-3.7188284E-4,1.1238967E-3,2.5262905E-3,4.322352E-3,6.604682E-3],"categories":[],"categories_nodes":[],"categories_segments":[],"categories_sizes":[],"default_left":[0,0,0,0,0,0,0,0,0,0,0,0,0,0,0,0,0,0,0,0,0,0,0,0,0,0,0,0,0,0,0,0,0,0,0,0,0,0,0,0,0],"id":3,"left_children":[1,3,5,7,9,11,13,-1,-1,15,17,19,21,23,-1,-1,-1,-1,25,27,29,31,-1,-1,-1,-1,-1,33,35,37,39,-1,-1,-1,-1,-1,-1,-1,-1,-1,-1],"loss_changes":[2.725555E2,5.7617966E1,5.8980354E1,7.783356E-1,3.5473976E0,1.2997702E1,1.3810226E1,0E0,0E0,1.4593887E-1,5.427189E-1,1.0306884E0,9.5389366E-1,1.1451797E0,0E0,0E0,0E0,0E0,1.8230438E-2,2.0857865E-1,1.1469358E-1,5.0846577E-2,0E0,0E0,0E0,0E0,0E0,1.7804563E-2,3.2268576E-2,6.1753094E-3,8.998811E-3,0E0,0E0,0E0,0E0,0E0,0E0,0E0,0E0,0E0,0E0],"parents":[2147483647,0,0,1,1,2,2,3,3,4,4,5,5,6,6,9,9,10,10,11,11,12,12,13,13,18,18,19,19,20,20,21,21,27,27,28,28,29,29,30,30],"right_children":[2,4,6,8,10,12,14,-1,-1,16,18,20,22,24,-1,-1,-1,-1,26,28,30,32,-1,-1,-1,-1,-1,34,36,38,40,-1,-1,-1,-1,-1,-1,-1,-1,-1,-1],"split_conditions":[-5.3948545E-1,-1.4244367E0,2.3619038E-1,-1.6738216E0,-8.6790913E-1,-1.4485843E-1,9.342551E-1,-6.7385785E-2,-4.9614474E-2,-9.906242E-1,-7.018237E-1,-3.27602E-1,4.2656295E-2,4.463549E-1,6.4847335E-2,-3.1967524E-2,-2.4801794E-2,-1.9049732E-2,-6.052135E-1,-4.2153075E-1,-2.5544244E-1,-5.632975E-2,2.0579016E-2,2.872685E-2,3.850714E-2,-1.31740365E-2,-9.469093E-3,-4.6137837E-1,-3.7086266E-1,-2.9817697E-1,-2.1539088E-1,9.870311E-3,1.406643E-2,-6.3163824E-3,-3.934591E-3,-2.445011E-3,-3.7188284E-4,1.1238967E-3,2.5262905E-3,4.322352E-3,6.604682E-3],"split_indices":[3,2,3,1,3,3,1,0,0,3,3,3,3,3,0,0,0,0,3,3,3,3,0,0,0,0,0,3,3,3,3,0,0,0,0,0,0,0,0,0,0],"split_type":[0,0,0,0,0,0,0,0,0,0,0,0,0,0,0,0,0,0,0,0,0,0,0,0,0,0,0,0,0,0,0,0,0,0,0,0,0,0,0,0,0],"sum_hessian":[9.5E2,3.46E2,6.04E2,1.17E2,2.29E2,3.92E2,2.12E2,9.4E1,2.3E1,9.1E1,1.38E2,2.08E2,1.84E2,1.65E2,4.7E1,4.8E1,4.3E1,7.2E1,6.6E1,1.29E2,7.9E1,6.7E1,1.17E2,8.5E1,8E1,4.7E1,1.9E1,5.4E1,7.5E1,3.7E1,4.2E1,2.5E1,4.2E1,3.4E1,2E1,3.8E1,3.7E1,1.7E1,2E1,1.7E1,2.5E1],"tree_param":{"num_deleted":"0","num_feature":"5","num_nodes":"41","size_leaf_vector":"1"}},{"base_weights":[-1.740996E-2,-6.656265E-1,3.9729697E-1,-1.1980432E0,-3.9226755E-1,1.7985599E-1,8.16681E-1,-6.401353E-2,-4.81882E-2,-5.143851E-1,-2.638281E-1,1.1965046E-2,3.685471E-1,6.7260283E-1,6.2045325E-2,-2.932146E-2,-2.131481E-2,-3.0320713E-1,-1.7748989E-1,-4.6892826E-2,9.901418E-2,2.798195E-1,2.1066649E-2,2.8189754E-2,3.7485506E-2,-1.632085E-2,-1.2643489E-2,-1.0125825E-2,-7.116873E-3,-8.330729E-2,-7.831988E-3,5.4790705E-2,1.4761466E-1,1.085424E-2,1.5137168E-2,-5.0365585E-3,-2.9276086E-3,-1.52523E-3,-3.806839E-5,1.6112154E-3,3.3267462E-3,4.9065E-3,7.876979E-3],"categories":[],"categories_nodes":[],"categories_segments":[],"categories_sizes":[],"default_left":[0,0,0,0,0,0,0,0,0,0,0,0,0,0,0,0,0,0,0,0,0,0,0,0,0,0,0,0,0,0,0,0,0,0,0,0,0,0,0,0,0,0,0],"id":4,"left_children":[1,3,5,7,9,11,13,-1,-1,15,17,19,21,23,-1,-1,-1,25,27,29,31,33,-1,-1,-1,-1,-1,-1,-1,35,37,39,41,-1,-1,-1,-1,-1,-1,-1,-1,-1,-1],"loss_changes":[2.508046E2,5.2506943E1,5.1740967E1,1.1356049E0,3.659996E0,1.1907096E1,1.1022949E1,0E0,0E0,5.305977E-1,3.5417366E-1,1.0293483E0,7.110939E-1,8.1062317E-1,0E0,0E0,0E0,1.2093544E-2,6.3643456E-3,1.7003307E-1,1.66004E-1,3.350973E-2,0E0,0E0,0E0,0E0,0E0,0E0,0E0,2.084443E-2,9.435032E-3,9.517044E-3,3.2035708E-3,0E0,0E0,0E0,0E0,0E0,0E0,0E0,0E0,0E0,0E0],"parents":[2147483647,0,0,1,1,2,2,3,3,4,4,5,5,6,6,9,9,10,10,11,11,12,12,13,13,17,17,18,18,19,19,20,20,21,21,29,29,30,30,31,31,32,32],"right_children":[2,4,6,8,10,12,14,-1,-1,16,18,20,22,24,-1,-1,-1,26,28,30,32,34,-1,-1,-1,-1,-1,-1,-1,36,38,40,42,-1,-1,-1,-1,-1,-1,-1,-1,-1,-1],"split_conditions":[-5.1613116E-1,-1.2692007E0,2.789186E-1,-1.7519187E0,-7.982775E-1,-1.021049E-1,7.506077E-1,-6.401353E-2,-4.81882E-2,-9.3573123E-1,-6.3356465E-1,-3.170223E-1,1.07982025E-1,4.7287384E-1,6.2045325E-2,-2.932146E-2,-2.131481E-2,-6.925255E-1,-5.4641885E-1,-3.957053E-1,-2.3146117E-1,-3.0746434E-2,2.1066649E-2,2.8189754E-2,3.7485506E-2,-1.632085E-2,-1.2643489E-2,-1.0125825E-2,-7.116873E-3,-4.3707344E-1,-3.7756845E-1,-2.8145677E-1,-2.0008495E-1,1.085424E-2,1.5137168E-2,-5.0365585E-3,-2.9276086E-3,-1.52523E-3,-3.806839E-5,1.6112154E-3,3.3267462E-3,4.9065E-3,7.876979E-3],"split_indices":[2,0,2,2,2,2,0,0,0,1,2,1,2,2,0,0,0,2,1,1,1,2,0,0,0,0,0,0,0,2,1,2,2,0,0,0,0,0,0,0,0,0,0],"split_type":[0,0,0,0,0,0,0,0,0,0,0,0,0,0,0,0,0,0,0,0,0,0,0,0,0,0,0,0,0,0,0,0,0,0,0,0,0,0,0,0,0,0,0],"sum_hessian":[9.31E2,3.63E2,5.68E2,1.22E2,2.41E2,3.75E2,1.93E2,8.7E1,3.5E1,1.22E2,1.19E2,1.99E2,1.76E2,1.46E2,4.7E1,6.4E1,5.8E1,8E1,3.9E1,1.19E2,8E1,6.8E1,1.08E2,6.4E1,8.2E1,5.1E1,2.9E1,2E1,1.9E1,6.1E1,5.8E1,4.3E1,3.7E1,2.1E1,4.7E1,3.4E1,2.7E1,1.3E1,4.5E1,1.6E1,2.7E1,8E0,2.9E1],"tree_param":{"num_deleted":"0","num_feature":"5","num_nodes":"43","size_leaf_vector":"1"}},{"base_weights":[-1.4054108E-2,-6.584222E-1,3.593016E-1,-1.1468685E0,-3.8346115E-1,1.4798684E-1,7.621075E-1,-6.4026706E-2,-4.998358E-2,-5.1558447E-1,-2.7989444E-1,-3.6905955E-3,3.2952264E-1,6.155112E-1,5.77128E-2,-2.9047703E-2,-2.2394363E-2,-1.7019318E-2,-2.1973434E-1,-5.8489088E-2,7.4633524E-2,2.4210186E-1,1.9138977E-2,2.4978666E-2,3.3892337E-2,-1.1714906E-2,-8.113037E-3,-9.63557E-2,-2.2546656E-2,4.0848333E-2,1.1483867E-1,9.411982E-3,1.3337344E-2,-5.6890575E-3,-3.5255135E-3,-2.034063E-3,-3.126655E-4,1.2178872E-3,2.9192674E-3,4.391501E-3,6.5155104E-3],"categories":[],"categories_nodes":[],"categories_segments":[],"categories_sizes":[],"default_left":[0,0,0,0,0,0,0,0,0,0,0,0,0,0,0,0,0,0,0,0,0,0,0,0,0,0,0,0,0,0,0,0,0,0,0,0,0,0,0,0,0],"id":5,"left_children":[1,3,5,7,9,11,13,-1,-1,15,17,19,21,23,-1,-1,-1,-1,25,27,29,31,-1,-1,-1,-1,-1,33,35,37,39,-1,-1,-1,-1,-1,-1,-1,-1,-1,-1],"loss_changes":[2.3215422E2,4.7103745E1,5.189483E1,1.2186279E0,2.9755478E0,1.1070238E1,1.1361931E1,0E0,0E0,1.7790604E-1,3.9830112E-1,9.486149E-1,7.5933266E-1,7.815552E-1,0E0,0E0,0E0,0E0,1.890111E-2,1.747599E-1,1.1891782E-1,4.536295E-2,0E0,0E0,0E0,0E0,0E0,2.0350456E-2,1.983779E-2,1.3326846E-2,5.687356E-3,0E0,0E0,0E0,0E0,0E0,0E0,0E0,0E0,0E0,0E0],"parents":[2147483647,0,0,1,1,2,2,3,3,4,4,5,5,6,6,9,9,10,10,11,11,12,12,13,13,18,18,19,19,20,20,21,21,27,27,28,28,29,29,30,30],"right_children":[2,4,6,8,10,12,14,-1,-1,16,18,20,22,24,-1,-1,-1,-1,26,28,30,32,-1,-1,-1,-1,-1,34,36,38,40,-1,-1,-1,-1,-1,-1,-1,-1,-1,-1],"split_conditions":[-5.3948545E-1,-1.231212E0,2.520169E-1,-1.8184736E0,-8.5044515E-1,-1.2912889E-1,7.001458E-1,-6.4026706E-2,-4.998358E-2,-1.0180113E0,-7.018237E-1,-3.27602E-1,6.641445E-2,4.0503192E-1,5.77128E-2,-2.9047703E-2,-2.2394363E-2,-1.7019318E-2,-5.898265E-1,-4.1430154E-1,-2.3691264E-1,-4.673073E-2,1.9138977E-2,2.4978666E-2,3.3892337E-2,-1.1714906E-2,-8.113037E-3,-4.6137837E-1,-3.6750406E-1,-2.8674138E-1,-1.9496202E-1,9.411982E-3,1.3337344E-2,-5.6890575E-3,-3.5255135E-3,-2.034063E-3,-3.126655E-4,1.2178872E-3,2.9192674E-3,4.391501E-3,6.5155104E-3],"split_indices":[3,3,3,2,3,3,3,0,0,3,3,3,3,3,0,0,0,0,3,3,3,3,0,0,0,0,0,3,3,3,3,0,0,0,0,0,0,0,0,0,0],"split_type":[0,0,0,0,0,0,0,0,0,0,0,0,0,0,0,0,0,0,0,0,0,0,0,0,0,0,0,0,0,0,0,0,0,0,0,0,0,0,0,0,0],"sum_hessian":[9.63E2,3.53E2,6.1E2,1.26E2,2.27E2,4.01E2,2.09E2,6.2E1,6.4E1,9.8E1,1.29E2,2.19E2,1.82E2,1.54E2,5.5E1,4.6E1,5.2E1,6.2E1,6.7E1,1.29E2,9E1,7.1E1,1.11E2,5.7E1,9.7E1,5.1E1,1.6E1,6.2E1,6.7E1,5E1,4E1,2.5E1,4.6E1,3.5E1,2.7E1,3.1E1,3.6E1,2.7E1,2.3E1,1.7E1,2.3E1],"tree_param":{"num_deleted":"0","num_feature":"5","num_nodes":"41","size_leaf_vector":"1"}},{"base_weights":[6.3320654E-3,-6.2153584E-1,3.5513708E-1,-1.0887485E0,-3.590958E-1,1.7481482E-1,7.712956E-1,-5.826022E-2,-4.3488916E-2,-4.6097147E-1,-2.3404104E-1,2.608648E-3,3.359499E-1,6.295284E-1,5.7162244E-2,-2.6967606E-2,-1.977035E-2,-1.32889645E-2,-8.420585E-3,-4.9091343E-2,7.1903996E-2,2.3894756E-1,3.9497414E-1,2.7090615E-2,3.487683E-2,-9.055775E-2,-2.4984153E-2,4.078923E-2,6.0060937E-3,9.370939E-3,1.3402215E-2,1.6889619E-2,2.0744655E-2,-5.4845223E-3,-3.5420295E-3,-2.204971E-3,-5.0399423E-4,6.700833E-4,2.865546E-3],"categories":[],"categories_nodes":[],"categories_segments":[],"categories_sizes":[],"default_left":[0,0,0,0,0,0,0,0,0,0,0,0,0,0,0,0,0,0,0,0,0,0,0,0,0,0,0,0,0,0,0,0,0,0,0,0,0,0,0],"id":6,"left_children":[1,3,5,7,9,11,13,-1,-1,15,17,19,21,23,-1,-1,-1,-1,-1,25,27,29,31,-1,-1,33,35,37,-1,-1,-1,-1,-1,-1,-1,-1,-1,-1,-1],"loss_changes":[2.0542699E2,4.068518E1,4.511589E1,9.955139E-1,2.643961E0,1.1708972E1,8.877197E0,0E0,0E0,3.9313698E-1,1.6145182E-1,7.3795646E-1,1.1537762E0,4.2142487E-1,0E0,0E0,0E0,0E0,0E0,1.1569482E-1,1.2712568E-1,7.720566E-2,1.2477875E-2,0E0,0E0,8.450866E-3,2.1207813E-2,2.4118818E-2,0E0,0E0,0E0,0E0,0E0,0E0,0E0,0E0,0E0,0E0,0E0],"parents":[2147483647,0,0,1,1,2,2,3,3,4,4,5,5,6,6,9,9,10,10,11,11,12,12,13,13,19,19,20,20,21,21,22,22,25,25,26,26,27,27],"right_children":[2,4,6,8,10,12,14,-1,-1,16,18,20,22,24,-1,-1,-1,-1,-1,26,28,30,32,-1,-1,34,36,38,-1,-1,-1,-1,-1,-1,-1,-1,-1,-1,-1],"split_conditions":[-5.1000494E-1,-1.2692007E0,3.1419724E-1,-1.7830952E0,-7.936371E-1,-1.3498911E-1,1.0074475E0,-5.826022E-2,-4.3488916E-2,-9.772604E-1,-6.3356465E-1,-3.2520476E-1,1.07982025E-1,5.0014585E-1,5.7162244E-2,-2.6967606E-2,-1.977035E-2,-1.32889645E-2,-8.420585E-3,-4.3136123E-1,-2.1556532E-1,-3.0746434E-2,1.5392733E-1,2.7090615E-2,3.487683E-2,-4.627758E-1,-3.8360077E-1,-2.9611254E-1,6.0060937E-3,9.370939E-3,1.3402215E-2,1.6889619E-2,2.0744655E-2,-5.4845223E-3,-3.5420295E-3,-2.204971E-3,-5.0399423E-4,6.700833E-4,2.865546E-3],"split_indices":[1,0,2,1,2,2,1,0,0,2,2,2,2,1,0,0,0,0,0,1,1,2,1,0,0,2,1,2,0,0,0,0,0,0,0,0,0,0,0],"split_type":[0,0,0,0,0,0,0,0,0,0,0,0,0,0,0,0,0,0,0,0,0,0,0,0,0,0,0,0,0,0,0,0,0,0,0,0,0,0,0],"sum_hessian":[9.36E2,3.34E2,6.02E2,1.19E2,2.15E2,4.21E2,1.81E2,8.5E1,3.4E1,1.17E2,9.8E1,2.04E2,2.17E2,1.33E2,4.8E1,5E1,6.7E1,6.4E1,3.4E1,1.17E2,8.7E1,8.4E1,1.33E2,6.2E1,7.1E1,4.2E1,7.5E1,5.4E1,3.3E1,3.3E1,5.1E1,3.9E1,9.4E1,1.9E1,2.3E1,3.2E1,4.3E1,2.1E1,3.3E1],"tree_param":{"num_deleted":"0","num_feature":"5","num_nodes":"39","size_leaf_vector":"1"}},{"base_weights":[7.043569E-3,-5.482166E-1,3.550199E-1,-1.0178931E0,-3.2621515E-1,1.848857E-1,7.4204016E-1,-5.4382574E-2,-3.896693E-2,-4.312846E-1,-2.0309103E-1,1.7937286E-2,3.3242834E-1,6.038773E-1,5.4672547E-2,-2.4904098E-2,-1.7852662E-2,-1.2354578E-2,-1.4718132E-1,-3.63752E-2,8.5303545E-2,2.5137472E-1,1.9362519E-2,2.6682844E-2,3.3614293E-2,-8.543094E-3,-5.755379E-3,-6.184933E-2,-2.5390906E-3,4.7741987E-2,1.2730579E-1,1.0005967E-2,1.38769E-2,-3.77667E-3,-2.2072531E-3,-7.214115E-4,5.2471407E-4,1.641256E-3,3.1600462E-3,4.538214E-3,6.8230415E-3],"categories":[],"categories_nodes":[],"categories_segments":[],"categories_sizes":[],"default_left":[0,0,0,0,0,0,0,0,0,0,0,0,0,0,0,0,0,0,0,0,0,0,0,0,0,0,0,0,0,0,0,0,0,0,0,0,0,0,0,0,0],"id":7,"left_children":[1,3,5,7,9,11,13,-1,-1,15,17,19,21,23,-1,-1,-1,-1,25,27,29,31,-1,-1,-1,-1,-1,33,35,37,39,-1,-1,-1,-1,-1,-1,-1,-1,-1,-1],"loss_changes":[1.8355792E2,3.783036E1,3.8316513E1,1.0993805E0,3.1465588E0,1.0019266E1,7.981941E0,0E0,0E0,4.8659134E-1,2.5145912E-1,7.055981E-1,8.6245537E-1,2.657051E-1,0E0,0E0,0E0,0E0,2.1346807E-2,9.2071116E-2,1.2960172E-1,6.5149784E-2,0E0,0E0,0E0,0E0,0E0,1.1443824E-2,7.4343258E-3,8.763574E-3,9.957552E-4,0E0,0E0,0E0,0E0,0E0,0E0,0E0,0E0,0E0,0E0],"parents":[2147483647,0,0,1,1,2,2,3,3,4,4,5,5,6,6,9,9,10,10,11,11,12,12,13,13,18,18,19,19,20,20,21,21,27,27,28,28,29,29,30,30],"right_children":[2,4,6,8,10,12,14,-1,-1,16,18,20,22,24,-1,-1,-1,-1,26,28,30,32,-1,-1,-1,-1,-1,34,36,38,40,-1,-1,-1,-1,-1,-1,-1,-1,-1,-1],"split_conditions":[-4.781541E-1,-1.231212E0,3.3367142E-1,-1.6301094E0,-7.8141886E-1,-9.381465E-2,9.318134E-1,-5.4382574E-2,-3.896693E-2,-9.377793E-1,-6.23734E-1,-3.0839655E-1,1.2799808E-1,5.3868556E-1,5.4672547E-2,-2.4904098E-2,-1.7852662E-2,-1.2354578E-2,-5.4510206E-1,-3.8893077E-1,-2.1539088E-1,4.613984E-3,1.9362519E-2,2.6682844E-2,3.3614293E-2,-8.543094E-3,-5.755379E-3,-4.2487845E-1,-3.4477952E-1,-2.7301273E-1,-1.8223603E-1,1.0005967E-2,1.38769E-2,-3.77667E-3,-2.2072531E-3,-7.214115E-4,5.2471407E-4,1.641256E-3,3.1600462E-3,4.538214E-3,6.8230415E-3],"split_indices":[3,3,3,2,3,3,0,0,0,3,3,3,3,3,0,0,0,0,3,3,3,3,0,0,0,0,0,3,3,3,3,0,0,0,0,0,0,0,0,0,0],"split_type":[0,0,0,0,0,0,0,0,0,0,0,0,0,0,0,0,0,0,0,0,0,0,0,0,0,0,0,0,0,0,0,0,0,0,0,0,0,0,0,0,0],"sum_hessian":[9.48E2,3.65E2,5.83E2,1.16E2,2.49E2,4.06E2,1.77E2,8.7E1,2.9E1,1.33E2,1.16E2,1.91E2,2.15E2,1.29E2,4.8E1,6.7E1,6.6E1,6.3E1,5.3E1,1.06E2,8.5E1,8.9E1,1.26E2,6.8E1,6.1E1,2.8E1,2.5E1,6E1,4.6E1,4.6E1,3.9E1,3.3E1,5.6E1,3.2E1,2.8E1,2.4E1,2.2E1,2.5E1,2.1E1,1E1,2.9E1],"tree_param":{"num_deleted":"0","num_feature":"5","num_nodes":"41","size_leaf_vector":"1"}},{"base_weights":[-4.496789E-3,-5.633629E-1,3.136632E-1,-9.903693E-1,-3.35907E-1,1.2615383E-1,6.4797693E-1,-5.6893047E-2,-4.364885E-2,-4.5634514E-1,-2.4367471E-1,-8.359976E-3,2.762344E-1,5.356644E-1,5.039475E-2,-2.779319E-2,-2.0772597E-2,-1.4644804E-2,-1.9070448E-1,-5.1217467E-2,6.1527986E-2,1.956521E-1,3.2370806E-1,2.2124035E-2,3.0290348E-2,-1.03431E-2,-1.3702302E-1,-8.8718995E-2,-2.5713626E-2,3.0593362E-2,9.8659284E-2,7.57219E-3,1.0842343E-2,1.4126727E-2,1.7387977E-2,-7.050942E-3,-1.7273516E-3,-5.1640305E-3,-3.1499283E-3,-2.0820098E-3,-4.9702724E-4,8.927513E-4,2.249331E-3,3.8585763E-3,5.634629E-3],"categories":[],"categories_nodes":[],"categories_segments":[],"categories_sizes":[],"default_left":[0,0,0,0,0,0,0,0,0,0,0,0,0,0,0,0,0,0,0,0,0,0,0,0,0,0,0,0,0,0,0,0,0,0,0,0,0,0,0,0,0,0,0,0,0],"id":8,"left_children":[1,3,5,7,9,11,13,-1,-1,15,17,19,21,23,-1,-1,-1,-1,25,27,29,31,33,-1,-1,-1,35,37,39,41,43,-1,-1,-1,-1,-1,-1,-1,-1,-1,-1,-1,-1,-1,-1],"loss_changes":[1.6713922E2,3.2786987E1,3.746775E1,1.0497742E0,2.3770561E0,7.7746534E0,8.151115E0,0E0,0E0,1.5974998E-1,2.8048086E-1,6.141767E-1,6.3291264E-1,8.169403E-1,0E0,0E0,0E0,0E0,2.8033495E-2,1.19185716E-1,8.657578E-2,3.2749176E-2,1.3648033E-2,0E0,0E0,0E0,2.498746E-3,1.2594521E-2,1.8929329E-2,7.2639957E-3,1.8573999E-3,0E0,0E0,0E0,0E0,0E0,0E0,0E0,0E0,0E0,0E0,0E0,0E0,0E0,0E0],"parents":[2147483647,0,0,1,1,2,2,3,3,4,4,5,5,6,6,9,9,10,10,11,11,12,12,13,13,18,18,19,19,20,20,21,21,22,22,26,26,27,27,28,28,29,29,30,30],"right_children":[2,4,6,8,10,12,14,-1,-1,16,18,20,22,24,-1,-1,-1,-1,26,28,30,32,34,-1,-1,-1,36,38,40,42,44,-1,-1,-1,-1,-1,-1,-1,-1,-1,-1,-1,-1,-1,-1],"split_conditions":[-5.396538E-1,-1.4351901E0,2.4957359E-1,-1.8899658E0,-8.717598E-1,-1.5439084E-1,7.506077E-1,-5.6893047E-2,-4.364885E-2,-1.084108E0,-7.070471E-1,-3.2520476E-1,5.1524986E-2,4.539624E-1,5.039475E-2,-2.779319E-2,-2.0772597E-2,-1.4644804E-2,-5.9147143E-1,-4.3136123E-1,-2.3917845E-1,-7.183934E-2,1.3183755E-1,2.2124035E-2,3.0290348E-2,-1.03431E-2,-4.755091E-1,-4.627758E-1,-3.8131702E-1,-2.9596227E-1,-1.9789085E-1,7.57219E-3,1.0842343E-2,1.4126727E-2,1.7387977E-2,-7.050942E-3,-1.7273516E-3,-5.1640305E-3,-3.1499283E-3,-2.0820098E-3,-4.9702724E-4,8.927513E-4,2.249331E-3,3.8585763E-3,5.634629E-3],"split_indices":[2,0,2,0,2,2,0,0,0,2,1,2,2,2,0,0,0,0,1,1,1,2,1,0,0,0,1,2,2,1,1,0,0,0,0,0,0,0,0,0,0,0,0,0,0],"split_type":[0,0,0,0,0,0,0,0,0,0,0,0,0,0,0,0,0,0,0,0,0,0,0,0,0,0,0,0,0,0,0,0,0,0,0,0,0,0,0,0,0,0,0,0,0],"sum_hessian":[9.38E2,3.4E2,5.98E2,1.17E2,2.23E2,3.84E2,2.14E2,4.8E1,6.9E1,9.5E1,1.28E2,2.03E2,1.81E2,1.65E2,4.9E1,2.4E1,7.1E1,6.4E1,6.4E1,1.26E2,7.7E1,6.9E1,1.12E2,7.4E1,9.1E1,4.7E1,1.7E1,5E1,7.6E1,4.3E1,3.4E1,2.5E1,4.4E1,4.6E1,6.6E1,1.6E1,1E0,3E1,2E1,3.7E1,3.9E1,2.4E1,1.9E1,1.6E1,1.8E1],"tree_param":{"num_deleted":"0","num_feature":"5","num_nodes":"45","size_leaf_vector":"1"}},{"base_weights":[-1.5166512E-2,-5.3964466E-1,2.9632422E-1,-9.501098E-1,-3.1944326E-1,1.06425755E-1,5.897913E-1,-5.4985195E-2,-4.251728E-2,-4.428446E-1,-2.3724495E-1,-9.659621E-3,2.5436676E-1,4.8656198E-1,9.3379617E-1,-2.6687516E-2,-2.0085042E-2,-1.45519255E-2,-1.8882348E-1,-5.7914007E-2,4.4791736E-2,1.8356937E-1,1.4699488E-2,1.9483063E-2,2.7794618E-2,3.7410982E-2,5.1319983E-2,-1.05772065E-2,-7.640368E-3,-8.8617675E-2,-3.143276E-2,1.647059E-2,7.589366E-2,7.055238E-3,1.0166169E-2,-4.826466E-3,-3.4023484E-3,-2.2591925E-3,-8.3169556E-4,1.454183E-4,1.4209092E-3,2.7597032E-3,4.4448725E-3],"categories":[],"categories_nodes":[],"categories_segments":[],"categories_sizes":[],"default_left":[0,0,0,0,0,0,0,0,0,0,0,0,0,0,0,0,0,0,0,0,0,0,0,0,0,0,0,0,0,0,0,0,0,0,0,0,0,0,0,0,0,0,0],"id":9,"left_children":[1,3,5,7,9,11,13,-1,-1,15,17,19,21,23,25,-1,-1,-1,27,29,31,33,-1,-1,-1,-1,-1,-1,-1,35,37,39,41,-1,-1,-1,-1,-1,-1,-1,-1,-1,-1],"loss_changes":[1.525842E2,3.1150475E1,3.259439E1,8.70697E-1,2.2076283E0,6.133498E0,7.713272E0,0E0,0E0,1.2221146E-1,3.0710745E-1,5.3072494E-1,3.864498E-1,9.8594284E-1,1.256485E-1,0E0,0E0,0E0,2.9865742E-2,8.421314E-2,8.2430005E-2,2.0802021E-2,0E0,0E0,0E0,0E0,0E0,0E0,0E0,1.4061332E-3,1.1254933E-2,8.181182E-3,7.2062016E-3,0E0,0E0,0E0,0E0,0E0,0E0,0E0,0E0,0E0,0E0],"parents":[2147483647,0,0,1,1,2,2,3,3,4,4,5,5,6,6,9,9,10,10,11,11,12,12,13,13,14,14,18,18,19,19,20,20,21,21,29,29,30,30,31,31,32,32],"right_children":[2,4,6,8,10,12,14,-1,-1,16,18,20,22,24,26,-1,-1,-1,28,30,32,34,-1,-1,-1,-1,-1,-1,-1,36,38,40,42,-1,-1,-1,-1,-1,-1,-1,-1,-1,-1],"split_conditions":[-5.3948545E-1,-1.4368734E0,2.0046696E-1,-1.9033026E0,-8.77246E-1,-1.6111058E-1,7.001458E-1,-5.4985195E-2,-4.251728E-2,-1.0714144E0,-7.264956E-1,-3.502186E-1,3.375097E-2,3.8938454E-1,1.1191355E0,-2.6687516E-2,-2.0085042E-2,-1.45519255E-2,-6.42577E-1,-4.3699643E-1,-2.7301273E-1,-5.632975E-2,1.4699488E-2,1.9483063E-2,2.7794618E-2,3.7410982E-2,5.1319983E-2,-1.05772065E-2,-7.640368E-3,-4.700994E-1,-3.941846E-1,-3.152404E-1,-2.2599581E-1,7.055238E-3,1.0166169E-2,-4.826466E-3,-3.4023484E-3,-2.2591925E-3,-8.3169556E-4,1.454183E-4,1.4209092E-3,2.7597032E-3,4.4448725E-3],"split_indices":[3,3,3,3,3,3,3,0,0,3,3,3,3,3,2,0,0,0,3,3,3,3,0,0,0,0,0,0,0,3,3,3,3,0,0,0,0,0,0,0,0,0,0],"split_type":[0,0,0,0,0,0,0,0,0,0,0,0,0,0,0,0,0,0,0,0,0,0,0,0,0,0,0,0,0,0,0,0,0,0,0,0,0,0,0,0,0,0,0],"sum_hessian":[9.32E2,3.47E2,5.85E2,1.2E2,2.27E2,3.56E2,2.29E2,4.4E1,7.6E1,8.9E1,1.38E2,2E2,1.56E2,1.78E2,5.1E1,2.4E1,6.5E1,6.3E1,7.5E1,1.06E2,9.4E1,5.8E1,9.8E1,7.7E1,1.01E2,2E1,3.1E1,4.3E1,3.2E1,4.8E1,5.8E1,5E1,4.4E1,2.1E1,3.7E1,3.2E1,1.6E1,2.9E1,2.9E1,2.4E1,2.6E1,1.9E1,2.5E1],"tree_param":{"num_deleted":"0","num_feature":"5","num_nodes":"43","size_leaf_vector":"1"}},{"base_weights":[-2.139635E-2,-5.2420545E-1,2.6978326E-1,-9.018579E-1,-3.084726E-1,8.378645E-2,5.4345846E-1,-5.1770635E-2,-3.9861757E-2,-4.2493084E-1,-2.3503791E-1,-1.4314643E-2,2.129925E-1,4.5442694E-1,4.7349524E-2,-2.388083E-2,-1.860859E-2,-1.4386753E-2,-1.9137256E-1,-6.201766E-2,2.9103972E-2,1.4940332E-1,1.2803639E-2,1.8322555E-2,5.31372E-1,-1.0425362E-2,-7.5324974E-3,-8.6297765E-2,-3.977422E-2,7.283936E-3,6.3219175E-2,5.686839E-3,8.513234E-3,2.4025666E-2,2.9425276E-2,-4.8895716E-3,-3.636571E-3,-2.3257888E-3,-1.1380883E-3,-1.5481008E-4,1.1388295E-3,2.2983416E-3,3.6034023E-3],"categories":[],"categories_nodes":[],"categories_segments":[],"categories_sizes":[],"default_left":[0,0,0,0,0,0,0,0,0,0,0,0,0,0,0,0,0,0,0,0,0,0,0,0,0,0,0,0,0,0,0,0,0,0,0,0,0,0,0,0,0,0,0],"id":10,"left_children":[1,3,5,7,9,11,13,-1,-1,15,17,19,21,23,-1,-1,-1,-1,25,27,29,31,-1,-1,33,-1,-1,35,37,39,41,-1,-1,-1,-1,-1,-1,-1,-1,-1,-1,-1,-1],"loss_changes":[1.3893597E2,2.8074066E1,3.0546997E1,9.35112E-1,1.8072395E0,4.5534663E0,8.299942E0,0E0,0E0,5.8514595E-2,2.6478004E-1,4.2640075E-1,3.8635397E-1,1.1659088E0,0E0,0E0,0E0,0E0,2.3712158E-2,4.9494743E-2,7.993416E-2,2.8998017E-2,0E0,0E0,2.2315979E-2,0E0,0E0,6.0111284E-5,5.019814E-3,1.0845186E-2,3.0991435E-3,0E0,0E0,0E0,0E0,0E0,0E0,0E0,0E0,0E0,0E0,0E0,0E0],"parents":[2147483647,0,0,1,1,2,2,3,3,4,4,5,5,6,6,9,9,10,10,11,11,12,12,13,13,18,18,19,19,20,20,21,21,24,24,27,27,28,28,29,29,30,30],"right_children":[2,4,6,8,10,12,14,-1,-1,16,18,20,22,24,-1,-1,-1,-1,26,28,30,32,-1,-1,34,-1,-1,36,38,40,42,-1,-1,-1,-1,-1,-1,-1,-1,-1,-1,-1,-1],"split_conditions":[-5.4510206E-1,-1.4368734E0,1.8036546E-1,-1.8832333E0,-8.960703E-1,-1.8223603E-1,1.0074475E0,-5.1770635E-2,-3.9861757E-2,-1.0541266E0,-7.454847E-1,-3.6750406E-1,4.613984E-3,3.9204884E-1,4.7349524E-2,-2.388083E-2,-1.860859E-2,-1.4386753E-2,-6.42577E-1,-4.4748312E-1,-2.7968937E-1,-1.1089422E-1,1.2803639E-2,1.8322555E-2,5.585586E-1,-1.0425362E-2,-7.5324974E-3,-4.866106E-1,-3.9854008E-1,-3.259546E-1,-2.4480464E-1,5.686839E-3,8.513234E-3,2.4025666E-2,2.9425276E-2,-4.8895716E-3,-3.636571E-3,-2.3257888E-3,-1.1380883E-3,-1.5481008E-4,1.1388295E-3,2.2983416E-3,3.6034023E-3],"split_indices":[3,3,3,3,3,3,1,0,0,3,3,3,3,3,0,0,0,0,3,3,3,3,0,0,3,0,0,3,3,3,3,0,0,0,0,0,0,0,0,0,0,0,0],"split_type":[0,0,0,0,0,0,0,0,0,0,0,0,0,0,0,0,0,0,0,0,0,0,0,0,0,0,0,0,0,0,0,0,0,0,0,0,0,0,0,0,0,0,0],"sum_hessian":[9.47E2,3.47E2,6E2,1.25E2,2.22E2,3.58E2,2.42E2,5.1E1,7.4E1,8.4E1,1.38E2,2.04E2,1.54E2,2E2,4.2E1,3.8E1,4.6E1,6E1,7.8E1,9.7E1,1.07E2,6.4E1,9E1,9.6E1,1.04E2,5.2E1,2.6E1,4.5E1,5.2E1,6.6E1,4.1E1,2.6E1,3.8E1,6E1,4.4E1,2.1E1,2.4E1,3.6E1,1.6E1,4E1,2.6E1,1.6E1,2.5E1],"tree_param":{"num_deleted":"0","num_feature":"5","num_nodes":"43","size_leaf_vector":"1"}},{"base_weights":[6.5804464E-3,-4.5470694E-1,2.8944904E-1,-8.3459777E-1,-2.668502E-1,1.2381467E-1,5.75959E-1,-4.4313274E-2,-3.1573065E-2,-3.6448315E-1,-1.7645521E-1,1.21955015E-2,2.5608054E-1,4.672544E-1,8.66553E-1,-2.0607838E-2,-1.5136825E-2,-1.0549716E-2,-1.16653E-1,-2.5570964E-2,7.6335765E-2,1.8762355E-1,1.4587054E-2,2.0225134E-2,2.6200784E-2,3.4181926E-2,4.6437785E-2,-6.946791E-3,-9.726302E-2,-5.452131E-2,-8.6529745E-4,4.5097027E-2,1.00379206E-1,7.51504E-3,1.012637E-2,-2.718455E-3,-5.0975643E-3,-3.4148754E-3,-1.9195017E-3,-7.4369984E-4,6.584062E-4,2.4690458E-3,-7.815078E-4,3.6010072E-3,5.418843E-3],"categories":[],"categories_nodes":[],"categories_segments":[],"categories_sizes":[],"default_left":[0,0,0,0,0,0,0,0,0,0,0,0,0,0,0,0,0,0,0,0,0,0,0,0,0,0,0,0,0,0,0,0,0,0,0,0,0,0,0,0,0,0,0,0,0],"id":11,"left_children":[1,3,5,7,9,11,13,-1,-1,15,17,19,21,23,25,-1,-1,-1,27,29,31,33,-1,-1,-1,-1,-1,-1,35,37,39,41,43,-1,-1,-1,-1,-1,-1,-1,-1,-1,-1,-1,-1],"loss_changes":[1.2082905E2,2.4897789E1,2.7168373E1,6.5784454E-1,2.0273361E0,5.3855205E0,6.2287674E0,0E0,0E0,2.0786095E-1,2.3357606E-1,4.8399982E-1,3.5294533E-1,3.4012222E-1,2.2239685E-3,0E0,0E0,0E0,7.225752E-3,9.007276E-2,5.1053673E-2,2.9351711E-3,0E0,0E0,0E0,0E0,0E0,0E0,2.888441E-4,1.0267273E-2,1.376057E-2,9.616889E-3,1.4936924E-3,0E0,0E0,0E0,0E0,0E0,0E0,0E0,0E0,0E0,0E0,0E0,0E0],"parents":[2147483647,0,0,1,1,2,2,3,3,4,4,5,5,6,6,9,9,10,10,11,11,12,12,13,13,14,14,18,18,19,19,20,20,21,21,28,28,29,29,30,30,31,31,32,32],"right_children":[2,4,6,8,10,12,14,-1,-1,16,18,20,22,24,26,-1,-1,-1,28,30,32,34,-1,-1,-1,-1,-1,-1,36,38,40,42,44,-1,-1,-1,-1,-1,-1,-1,-1,-1,-1,-1,-1],"split_conditions":[-4.926464E-1,-1.2692007E0,2.789186E-1,-1.6282042E0,-7.982775E-1,-1.021049E-1,6.696383E-1,-4.4313274E-2,-3.1573065E-2,-9.647375E-1,-6.3356465E-1,-2.9596227E-1,8.1303224E-2,4.8435336E-1,1.1191355E0,-2.0607838E-2,-1.5136825E-2,-1.0549716E-2,-5.421912E-1,-3.9352793E-1,-2.1556532E-1,-2.0996831E-2,1.4587054E-2,2.0225134E-2,2.6200784E-2,3.4181926E-2,4.6437785E-2,-6.946791E-3,-5.58598E-1,-4.3707344E-1,-3.4285727E-1,9.3417066E-1,-1.8590878E-1,7.51504E-3,1.012637E-2,-2.718455E-3,-5.0975643E-3,-3.4148754E-3,-1.9195017E-3,-7.4369984E-4,6.584062E-4,2.4690458E-3,-7.815078E-4,3.6010072E-3,5.418843E-3],"split_indices":[2,0,2,0,2,2,1,0,0,1,2,1,2,1,2,0,0,0,1,1,1,1,0,0,0,0,0,0,0,2,1,4,1,0,0,0,0,0,0,0,0,0,0,0,0],"split_type":[0,0,0,0,0,0,0,0,0,0,0,0,0,0,0,0,0,0,0,0,0,0,0,0,0,0,0,0,0,0,0,0,0,0,0,0,0,0,0,0,0,0,0,0,0],"sum_hessian":[9.24E2,3.51E2,5.73E2,1.15E2,2.36E2,3.64E2,2.09E2,8.9E1,2.6E1,1.12E2,1.24E2,1.98E2,1.66E2,1.54E2,5.5E1,6E1,5.2E1,7.7E1,4.7E1,1.25E2,7.3E1,5.9E1,1.07E2,7.7E1,7.7E1,1.7E1,3.8E1,1.9E1,2.8E1,5.7E1,6.8E1,3.3E1,4E1,2E1,3.9E1,4E0,2.4E1,2.9E1,2.8E1,3.4E1,3.4E1,3.1E1,2E0,1.1E1,2.9E1],"tree_param":{"num_deleted":"0","num_feature":"5","num_nodes":"45","size_leaf_vector":"1"}},{"base_weights":[-5.303865E-3,-4.4832435E-1,2.556114E-1,-7.971928E-1,-2.6132312E-1,1.1339028E-1,5.345365E-1,-4.6855632E-2,-7.062494E-1,-3.4525326E-1,-1.7439081E-1,2.6684215E-3,2.3101836E-1,4.4771758E-1,4.2156678E-2,-3.6952417E-2,-2.7254283E-2,-2.0492269E-2,-1.4927107E-2,-1.02988705E-2,-1.3216132E-1,-3.4142047E-2,5.6099482E-2,1.7368735E-1,2.6956227E-1,1.9362692E-2,2.6048547E-2,-7.3436894E-3,-5.1724454E-3,-6.0654435E-2,-1.2196118E-2,3.3654287E-2,4.185069E-3,6.6772336E-3,9.475297E-3,1.179321E-2,1.4419694E-2,-3.5950101E-3,-2.267284E-3,-1.1826664E-3,-6.774474E-5,1.0518301E-3,2.2210546E-3],"categories":[],"categories_nodes":[],"categories_segments":[],"categories_sizes":[],"default_left":[0,0,0,0,0,0,0,0,0,0,0,0,0,0,0,0,0,0,0,0,0,0,0,0,0,0,0,0,0,0,0,0,0,0,0,0,0,0,0,0,0,0,0],"id":12,"left_children":[1,3,5,7,9,11,13,-1,15,17,19,21,23,25,-1,-1,-1,-1,-1,-1,27,29,31,33,35,-1,-1,-1,-1,37,39,41,-1,-1,-1,-1,-1,-1,-1,-1,-1,-1,-1],"loss_changes":[1.094635E2,2.2690506E1,2.3582138E1,8.905792E-1,1.6179266E0,5.1568885E0,5.007721E0,0E0,9.464264E-3,2.2763538E-1,1.2617493E-1,4.0511397E-1,3.774538E-1,5.02491E-1,0E0,0E0,0E0,0E0,0E0,0E0,6.7724586E-3,7.0244625E-2,4.92236E-2,2.549243E-2,3.686905E-3,0E0,0E0,0E0,0E0,6.20836E-3,8.414245E-3,5.586438E-3,0E0,0E0,0E0,0E0,0E0,0E0,0E0,0E0,0E0,0E0,0E0],"parents":[2147483647,0,0,1,1,2,2,3,3,4,4,5,5,6,6,8,8,9,9,10,10,11,11,12,12,13,13,20,20,21,21,22,22,23,23,24,24,29,29,30,30,31,31],"right_children":[2,4,6,8,10,12,14,-1,16,18,20,22,24,26,-1,-1,-1,-1,-1,-1,28,30,32,34,36,-1,-1,-1,-1,38,40,42,-1,-1,-1,-1,-1,-1,-1,-1,-1,-1,-1],"split_conditions":[-5.070662E-1,-1.2692007E0,2.5937888E-1,-1.8778597E0,-8.0404836E-1,-1.2912889E-1,1.0074475E0,-4.6855632E-2,-1.5074382E0,-9.906242E-1,-6.604872E-1,-3.259546E-1,6.982463E-2,5.2603465E-1,4.2156678E-2,-3.6952417E-2,-2.7254283E-2,-2.0492269E-2,-1.4927107E-2,-1.02988705E-2,-5.706803E-1,-4.043468E-1,-2.2599581E-1,-4.673073E-2,1.4740491E-1,1.9362692E-2,2.6048547E-2,-7.3436894E-3,-5.1724454E-3,-4.4748312E-1,-3.5961205E-1,-2.7968937E-1,4.185069E-3,6.6772336E-3,9.475297E-3,1.179321E-2,1.4419694E-2,-3.5950101E-3,-2.267284E-3,-1.1826664E-3,-6.774474E-5,1.0518301E-3,2.2210546E-3],"split_indices":[3,0,3,2,3,3,1,0,2,3,3,3,3,3,0,0,0,0,0,0,3,3,3,3,3,0,0,0,0,3,3,3,0,0,0,0,0,0,0,0,0,0,0],"split_type":[0,0,0,0,0,0,0,0,0,0,0,0,0,0,0,0,0,0,0,0,0,0,0,0,0,0,0,0,0,0,0,0,0,0,0,0,0,0,0,0,0,0,0],"sum_hessian":[9.45E2,3.5E2,5.95E2,1.21E2,2.29E2,3.95E2,2E2,4.4E1,7.7E1,1.15E2,1.14E2,2.04E2,1.91E2,1.58E2,4.2E1,6.1E1,1.6E1,4.5E1,7E1,6.3E1,5.1E1,1.21E2,8.3E1,7.9E1,1.12E2,9E1,6.8E1,3.1E1,2E1,5.4E1,6.7E1,4.7E1,3.6E1,2.5E1,5.4E1,4.5E1,6.7E1,2.9E1,2.5E1,3.2E1,3.5E1,2.3E1,2.4E1],"tree_param":{"num_deleted":"0","num_feature":"5","num_nodes":"43","size_leaf_vector":"1"}},{"base_weights":[4.780098E-3,-4.2831114E-1,2.532909E-1,-7.690109E-1,-2.4772944E-1,1.2767427E-1,5.452152E-1,-4.5404263E-2,-3.4843985E-2,-3.4226456E-1,-1.7341562E-1,7.4911555E-3,2.4003306E-1,4.5482153E-1,4.1462082E-2,-1.9835008E-2,-1.4807473E-2,-1.0508465E-2,-1.2960143E-1,-2.8683271E-2,6.3467875E-2,1.826752E-1,2.7879035E-1,2.0074442E-2,2.6400277E-2,-7.2279857E-3,-4.8256796E-3,-5.359022E-2,-5.250963E-3,3.5388622E-2,8.9314274E-2,7.034068E-3,9.833118E-3,1.2154697E-2,1.4904921E-2,-3.2296875E-3,-1.9800228E-3,-7.274092E-4,1.8269013E-4,1.2368133E-3,2.3516966E-3,3.4628473E-3,4.9690343E-3],"categories":[],"categories_nodes":[],"categories_segments":[],"categories_sizes":[],"default_left":[0,0,0,0,0,0,0,0,0,0,0,0,0,0,0,0,0,0,0,0,0,0,0,0,0,0,0,0,0,0,0,0,0,0,0,0,0,0,0,0,0,0,0],"id":13,"left_children":[1,3,5,7,9,11,13,-1,-1,15,17,19,21,23,-1,-1,-1,-1,25,27,29,31,33,-1,-1,-1,-1,35,37,39,41,-1,-1,-1,-1,-1,-1,-1,-1,-1,-1,-1,-1],"loss_changes":[1.0095578E2,2.0850754E1,2.1786034E1,5.508957E-1,1.5213299E0,5.6427183E0,4.218525E0,0E0,0E0,1.2852764E-1,1.7888427E-1,4.1288042E-1,4.292488E-1,3.2664108E-1,0E0,0E0,0E0,0E0,1.6239166E-2,7.208838E-2,5.4899096E-2,2.519679E-2,1.5066147E-2,0E0,0E0,0E0,0E0,6.6782683E-3,5.4344786E-3,3.7985593E-3,1.3953149E-3,0E0,0E0,0E0,0E0,0E0,0E0,0E0,0E0,0E0,0E0,0E0,0E0],"parents":[2147483647,0,0,1,1,2,2,3,3,4,4,5,5,6,6,9,9,10,10,11,11,12,12,13,13,18,18,19,19,20,20,21,21,22,22,27,27,28,28,29,29,30,30],"right_children":[2,4,6,8,10,12,14,-1,-1,16,18,20,22,24,-1,-1,-1,-1,26,28,30,32,34,-1,-1,-1,-1,36,38,40,42,-1,-1,-1,-1,-1,-1,-1,-1,-1,-1,-1,-1],"split_conditions":[-4.9746525E-1,-1.231212E0,3.1975266E-1,-1.9288889E0,-8.333297E-1,-1.1089422E-1,1.039495E0,-4.5404263E-2,-3.4843985E-2,-1.032786E0,-6.7594606E-1,-3.0839655E-1,1.22546755E-1,5.723495E-1,4.1462082E-2,-1.9835008E-2,-1.4807473E-2,-1.0508465E-2,-5.706803E-1,-3.9854008E-1,-2.2154428E-1,-1.0571042E-2,1.8479863E-1,2.0074442E-2,2.6400277E-2,-7.2279857E-3,-4.8256796E-3,-4.3699643E-1,-3.502186E-1,-2.7301273E-1,-1.8223603E-1,7.034068E-3,9.833118E-3,1.2154697E-2,1.4904921E-2,-3.2296875E-3,-1.9800228E-3,-7.274092E-4,1.8269013E-4,1.2368133E-3,2.3516966E-3,3.4628473E-3,4.9690343E-3],"split_indices":[3,3,3,3,3,3,3,0,0,3,3,3,3,3,0,0,0,0,3,3,3,3,3,0,0,0,0,3,3,3,3,0,0,0,0,0,0,0,0,0,0,0,0],"split_type":[0,0,0,0,0,0,0,0,0,0,0,0,0,0,0,0,0,0,0,0,0,0,0,0,0,0,0,0,0,0,0,0,0,0,0,0,0,0,0,0,0,0,0],"sum_hessian":[9.36E2,3.41E2,5.95E2,1.17E2,2.24E2,4.17E2,1.78E2,3.6E1,8.1E1,9.7E1,1.27E2,2.02E2,2.15E2,1.37E2,4.1E1,4.1E1,5.6E1,6.7E1,6E1,1.23E2,7.9E1,8.9E1,1.26E2,8.3E1,5.4E1,3.9E1,2.1E1,5.9E1,6.4E1,3.9E1,4E1,2.5E1,6.4E1,4.9E1,7.7E1,3.1E1,2.8E1,3.1E1,3.3E1,2.2E1,1.7E1,1.6E1,2.4E1],"tree_param":{"num_deleted":"0","num_feature":"5","num_nodes":"43","size_leaf_vector":"1"}},{"base_weights":[5.10511E-4,-4.246556E-1,2.3216163E-1,-7.396435E-1,-2.4414027E-1,9.872099E-2,4.8819935E-1,-4.405154E-2,-6.702437E-1,-3.3841917E-1,-1.8231846E-1,-3.5844133E-3,2.1133003E-1,4.0501764E-1,3.843611E-2,-3.4949478E-2,-2.5219345E-2,-1.8872635E-2,-1.4806496E-2,-1.1247475E-2,-1.4198788E-1,-4.1248545E-2,4.476289E-2,1.5460436E-1,2.4415137E-1,1.6967116E-2,2.2987345E-2,-7.684151E-3,-5.396894E-3,-7.2024E-2,-2.1976331E-2,1.9442463E-2,7.1943305E-2,5.6496887E-3,8.319105E-3,1.0921893E-2,1.3192664E-2,-3.823451E-3,-2.5666559E-3,-1.6683586E-3,-3.7969777E-4,4.8331203E-4,1.3525133E-3,2.8147749E-3,4.3200324E-3],"categories":[],"categories_nodes":[],"categories_segments":[],"categories_sizes":[],"default_left":[0,0,0,0,0,0,0,0,0,0,0,0,0,0,0,0,0,0,0,0,0,0,0,0,0,0,0,0,0,0,0,0,0,0,0,0,0,0,0,0,0,0,0,0,0],"id":14,"left_children":[1,3,5,7,9,11,13,-1,15,17,19,21,23,25,-1,-1,-1,-1,-1,-1,27,29,31,33,35,-1,-1,-1,-1,37,39,41,43,-1,-1,-1,-1,-1,-1,-1,-1,-1,-1,-1,-1],"loss_changes":[9.159598E1,1.8469555E1,2.0519634E1,5.7715607E-1,1.162283E0,4.574402E0,4.495533E0,0E0,4.7927856E-2,2.3583412E-2,1.8985462E-1,3.8242686E-1,3.1413555E-1,4.226818E-1,0E0,0E0,0E0,0E0,0E0,0E0,1.0888934E-2,6.84043E-2,6.1917454E-2,1.6485453E-2,2.1438599E-3,0E0,0E0,0E0,0E0,2.1331012E-4,1.1869833E-2,3.3829287E-3,5.0899684E-3,0E0,0E0,0E0,0E0,0E0,0E0,0E0,0E0,0E0,0E0,0E0,0E0],"parents":[2147483647,0,0,1,1,2,2,3,3,4,4,5,5,6,6,8,8,9,9,10,10,11,11,12,12,13,13,20,20,21,21,22,22,23,23,24,24,29,29,30,30,31,31,32,32],"right_children":[2,4,6,8,10,12,14,-1,16,18,20,22,24,26,-1,-1,-1,-1,-1,-1,28,30,32,34,36,-1,-1,-1,-1,38,40,42,44,-1,-1,-1,-1,-1,-1,-1,-1,-1,-1,-1,-1],"split_conditions":[-5.3948545E-1,-1.4233856E0,2.5937888E-1,-1.9517676E0,-8.77246E-1,-1.2912889E-1,9.560242E-1,-4.405154E-2,-1.5610507E0,-1.0387363E0,-7.184728E-1,-3.393733E-1,6.982463E-2,4.9054867E-1,3.843611E-2,-3.4949478E-2,-2.5219345E-2,-1.8872635E-2,-1.4806496E-2,-1.1247475E-2,-6.052135E-1,-4.3699643E-1,-2.5544244E-1,-7.7833466E-2,1.6003777E-1,1.6967116E-2,2.2987345E-2,-7.684151E-3,-5.396894E-3,-4.700994E-1,-3.7910232E-1,-3.0523735E-1,-1.869985E-1,5.6496887E-3,8.319105E-3,1.0921893E-2,1.3192664E-2,-3.823451E-3,-2.5666559E-3,-1.6683586E-3,-3.7969777E-4,4.8331203E-4,1.3525133E-3,2.8147749E-3,4.3200324E-3],"split_indices":[3,1,3,3,3,3,2,0,3,3,3,3,3,3,0,0,0,0,0,0,3,3,3,3,3,0,0,0,0,3,3,3,3,0,0,0,0,0,0,0,0,0,0,0,0],"split_type":[0,0,0,0,0,0,0,0,0,0,0,0,0,0,0,0,0,0,0,0,0,0,0,0,0,0,0,0,0,0,0,0,0,0,0,0,0,0,0,0,0,0,0,0,0],"sum_hessian":[9.28E2,3.27E2,6.01E2,1.18E2,2.09E2,3.96E2,2.05E2,3.5E1,8.3E1,8.1E1,1.28E2,2.08E2,1.88E2,1.6E2,4.5E1,6.8E1,1.5E1,3.8E1,4.3E1,6E1,6.8E1,1.17E2,9.1E1,7.1E1,1.17E2,7.6E1,8.4E1,4.8E1,2E1,4.4E1,7.3E1,4.8E1,4.3E1,1.8E1,5.3E1,5.6E1,6.1E1,3.4E1,1E1,4E1,3.3E1,2.2E1,2.6E1,2.3E1,2E1],"tree_param":{"num_deleted":"0","num_feature":"5","num_nodes":"45","size_leaf_vector":"1"}},{"base_weights":[5.454953E-4,-3.8610977E-1,2.3018247E-1,-6.8664336E-1,-2.2096822E-1,9.9822015E-2,4.6621826E-1,-7.4090964E-1,-2.499721E-2,-2.8279653E-1,-1.39E-1,1.8959157E-3,2.0408984E-1,3.904447E-1,3.7160873E-2,-4.3305498E-2,-3.387644E-2,-1.6232869E-2,-1.1760443E-2,-8.029113E-3,-5.2012987E-3,-2.962165E-2,4.684298E-2,1.5156233E-1,1.1887137E-2,3.393626E-1,2.3173697E-2,-4.957211E-2,-8.4725255E-3,2.8440239E-2,3.599342E-3,5.8401264E-3,8.33031E-3,1.4585364E-2,1.821166E-2,-2.9274875E-3,-1.8215465E-3,-8.9709956E-4,1.769234E-5,8.721195E-4,1.8377717E-3],"categories":[],"categories_nodes":[],"categories_segments":[],"categories_sizes":[],"default_left":[0,0,0,0,0,0,0,0,0,0,0,0,0,0,0,0,0,0,0,0,0,0,0,0,0,0,0,0,0,0,0,0,0,0,0,0,0,0,0,0,0],"id":15,"left_children":[1,3,5,7,9,11,13,15,-1,17,19,21,23,25,-1,-1,-1,-1,-1,-1,-1,27,29,31,-1,33,-1,35,37,39,-1,-1,-1,-1,-1,-1,-1,-1,-1,-1,-1],"loss_changes":[8.3640594E1,1.7268608E1,1.8138372E1,8.8589096E-1,1.1161861E0,3.9000397E0,4.1175537E0,1.5910721E-1,0E0,1.8061352E-1,5.8776975E-2,2.8187874E-1,2.9099226E-1,4.6570587E-1,0E0,0E0,0E0,0E0,0E0,0E0,0E0,4.8946366E-2,3.5895392E-2,1.9759059E-2,0E0,1.4643669E-2,0E0,4.945591E-3,4.8540486E-3,3.8399138E-3,0E0,0E0,0E0,0E0,0E0,0E0,0E0,0E0,0E0,0E0,0E0],"parents":[2147483647,0,0,1,1,2,2,3,3,4,4,5,5,6,6,7,7,9,9,10,10,11,11,12,12,13,13,21,21,22,22,23,23,25,25,27,27,28,28,29,29],"right_children":[2,4,6,8,10,12,14,16,-1,18,20,22,24,26,-1,-1,-1,-1,-1,-1,-1,28,30,32,-1,34,-1,36,38,40,-1,-1,-1,-1,-1,-1,-1,-1,-1,-1,-1],"split_conditions":[-4.9746525E-1,-1.195508E0,2.5937888E-1,-1.6281832E0,-7.8141886E-1,-1.2912889E-1,1.039495E0,-1.9866688E0,-2.499721E-2,-9.29751E-1,-6.23734E-1,-3.259546E-1,9.2977375E-2,5.4585385E-1,3.7160873E-2,-4.3305498E-2,-3.387644E-2,-1.6232869E-2,-1.1760443E-2,-8.029113E-3,-5.2012987E-3,-4.0214714E-1,-2.2599581E-1,-4.673073E-2,1.1887137E-2,3.6508864E-1,2.3173697E-2,-4.3699643E-1,-3.5651472E-1,-2.8674138E-1,3.599342E-3,5.8401264E-3,8.33031E-3,1.4585364E-2,1.821166E-2,-2.9274875E-3,-1.8215465E-3,-8.9709956E-4,1.769234E-5,8.721195E-4,1.8377717E-3],"split_indices":[3,3,3,3,3,3,3,2,0,3,3,3,3,3,0,0,0,0,0,0,0,3,3,3,0,3,0,3,3,3,0,0,0,0,0,0,0,0,0,0,0],"split_type":[0,0,0,0,0,0,0,0,0,0,0,0,0,0,0,0,0,0,0,0,0,0,0,0,0,0,0,0,0,0,0,0,0,0,0,0,0,0,0,0,0],"sum_hessian":[9.4E2,3.5E2,5.9E2,1.23E2,2.27E2,3.81E2,2.09E2,9.3E1,3E1,1.28E2,9.9E1,1.97E2,1.84E2,1.66E2,4.3E1,2.7E1,6.6E1,6.5E1,6.3E1,5.9E1,4E1,1.16E2,8.1E1,7.4E1,1.1E2,1.01E2,6.5E1,5.9E1,5.7E1,4.8E1,3.3E1,2.5E1,4.9E1,3.9E1,6.2E1,3.3E1,2.6E1,2.7E1,3E1,2.2E1,2.6E1],"tree_param":{"num_deleted":"0","num_feature":"5","num_nodes":"41","size_leaf_vector":"1"}},{"base_weights":[8.496867E-3,-3.63878E-1,2.1397382E-1,-6.40479E-1,-2.1095185E-1,9.815718E-2,4.4569582E-1,-3.4352124E-2,-2.2554114E-2,-2.74421E-1,-1.358528E-1,3.3597702E-3,1.9485272E-1,3.6212605E-1,6.526306E-1,-1.5890656E-2,-1.1678035E-2,-7.973883E-3,-1.0216029E-1,-2.8451635E-2,4.6102006E-2,1.4168823E-1,2.2345895E-1,1.5268758E-2,1.9789882E-2,2.7044518E-2,3.6900666E-2,-5.670836E-3,-4.068995E-3,-4.961816E-2,-8.874587E-3,2.9261762E-2,3.5746165E-3,5.1755267E-3,7.537387E-3,9.804933E-3,1.2113847E-2,-2.8689578E-3,-1.843968E-3,-9.108628E-4,-5.7344565E-5,9.550224E-4,2.0142437E-3],"categories":[],"categories_nodes":[],"categories_segments":[],"categories_sizes":[],"default_left":[0,0,0,0,0,0,0,0,0,0,0,0,0,0,0,0,0,0,0,0,0,0,0,0,0,0,0,0,0,0,0,0,0,0,0,0,0,0,0,0,0,0,0],"id":16,"left_children":[1,3,5,7,9,11,13,-1,-1,15,17,19,21,23,25,-1,-1,-1,27,29,31,33,35,-1,-1,-1,-1,-1,-1,37,39,41,-1,-1,-1,-1,-1,-1,-1,-1,-1,-1,-1],"loss_changes":[7.100676E1,1.3823734E1,1.6004932E1,7.2190475E-1,9.827452E-1,3.6659398E0,3.2050705E0,0E0,0E0,1.2966728E-1,6.3305736E-2,2.7732885E-1,2.694645E-1,1.543026E-1,1.3509369E-1,0E0,0E0,0E0,1.0623336E-3,4.8041902E-2,3.5107404E-2,9.298801E-3,1.7877102E-2,0E0,0E0,0E0,0E0,0E0,0E0,3.4203678E-3,4.4553378E-3,5.279042E-3,0E0,0E0,0E0,0E0,0E0,0E0,0E0,0E0,0E0,0E0,0E0],"parents":[2147483647,0,0,1,1,2,2,3,3,4,4,5,5,6,6,9,9,10,10,11,11,12,12,13,13,14,14,18,18,19,19,20,20,21,21,22,22,29,29,30,30,31,31],"right_children":[2,4,6,8,10,12,14,-1,-1,16,18,20,22,24,26,-1,-1,-1,28,30,32,34,36,-1,-1,-1,-1,-1,-1,38,40,42,-1,-1,-1,-1,-1,-1,-1,-1,-1,-1,-1],"split_conditions":[-4.9746525E-1,-1.195508E0,2.777621E-1,-1.5855281E0,-7.9635435E-1,-1.2446018E-1,7.001458E-1,-3.4352124E-2,-2.2554114E-2,-9.563068E-1,-6.42577E-1,-3.259546E-1,6.982463E-2,4.463549E-1,1.1542187E0,-1.5890656E-2,-1.1678035E-2,-7.973883E-3,-5.563166E-1,-4.0214714E-1,-2.2154428E-1,-7.7833466E-2,1.6003777E-1,1.5268758E-2,1.9789882E-2,2.7044518E-2,3.6900666E-2,-5.670836E-3,-4.068995E-3,-4.4748312E-1,-3.5961205E-1,-2.7301273E-1,3.5746165E-3,5.1755267E-3,7.537387E-3,9.804933E-3,1.2113847E-2,-2.8689578E-3,-1.843968E-3,-9.108628E-4,-5.7344565E-5,9.550224E-4,2.0142437E-3],"split_indices":[3,3,3,3,3,3,3,0,0,3,3,3,3,3,3,0,0,0,3,3,3,3,3,0,0,0,0,0,0,3,3,3,0,0,0,0,0,0,0,0,0,0,0],"split_type":[0,0,0,0,0,0,0,0,0,0,0,0,0,0,0,0,0,0,0,0,0,0,0,0,0,0,0,0,0,0,0,0,0,0,0,0,0,0,0,0,0,0,0],"sum_hessian":[9.26E2,3.29E2,5.97E2,1.16E2,2.13E2,3.99E2,1.98E2,9.1E1,2.5E1,1.14E2,9.9E1,2.02E2,1.97E2,1.43E2,5.5E1,5.2E1,6.2E1,5.6E1,4.3E1,1.16E2,8.6E1,7.1E1,1.26E2,5.7E1,8.6E1,2.7E1,2.8E1,2.5E1,1.8E1,5.5E1,6.1E1,5.3E1,3.3E1,1.6E1,5.5E1,5.6E1,7E1,3.2E1,2.3E1,2.7E1,3.4E1,2.9E1,2.4E1],"tree_param":{"num_deleted":"0","num_feature":"5","num_nodes":"43","size_leaf_vector":"1"}},{"base_weights":[2.1660095E-3,-3.607458E-1,1.977149E-1,-6.179171E-1,-2.0391823E-1,7.753609E-2,4.1223952E-1,-3.5383403E-2,-2.6206035E-2,-2.7226666E-1,-1.4420047E-1,-6.4174994E-3,1.7014663E-1,3.335218E-1,6.325972E-1,-1.6013183E-2,-1.20525425E-2,-8.4731495E-3,-5.613918E-3,-4.002203E-2,2.7908862E-2,1.16285965E-1,1.9904174E-1,1.3002867E-2,3.649329E-1,2.6149606E-2,3.5830457E-2,-5.7683244E-2,-2.323871E-2,1.034226E-2,4.906946E-2,4.6299403E-3,6.4524296E-3,8.701833E-3,1.0890557E-2,1.673626E-2,2.0417146E-2,-3.302727E-3,-2.3334888E-3,-1.5184114E-3,-5.582028E-4,2.4068586E-5,9.0155174E-4,1.9299536E-3,2.9848078E-3],"categories":[],"categories_nodes":[],"categories_segments":[],"categories_sizes":[],"default_left":[0,0,0,0,0,0,0,0,0,0,0,0,0,0,0,0,0,0,0,0,0,0,0,0,0,0,0,0,0,0,0,0,0,0,0,0,0,0,0,0,0,0,0,0,0],"id":17,"left_children":[1,3,5,7,9,11,13,-1,-1,15,17,19,21,23,25,-1,-1,-1,-1,27,29,31,33,-1,35,-1,-1,37,39,41,43,-1,-1,-1,-1,-1,-1,-1,-1,-1,-1,-1,-1,-1,-1],"loss_changes":[6.607063E1,1.3022083E1,1.5565731E1,6.645508E-1,7.933874E-1,3.0255618E0,3.5531082E0,0E0,0E0,6.363726E-2,7.048702E-2,2.3758885E-1,2.6477194E-1,2.7892685E-1,1.4087486E-1,0E0,0E0,0E0,0E0,2.9486537E-2,3.7407927E-2,8.305013E-3,1.7942905E-2,0E0,8.8739395E-3,0E0,0E0,1.5271157E-3,4.395725E-3,4.312956E-3,2.8140023E-3,0E0,0E0,0E0,0E0,0E0,0E0,0E0,0E0,0E0,0E0,0E0,0E0,0E0,0E0],"parents":[2147483647,0,0,1,1,2,2,3,3,4,4,5,5,6,6,9,9,10,10,11,11,12,12,13,13,14,14,19,19,20,20,21,21,22,22,24,24,27,27,28,28,29,29,30,30],"right_children":[2,4,6,8,10,12,14,-1,-1,16,18,20,22,24,26,-1,-1,-1,-1,28,30,32,34,-1,36,-1,-1,38,40,42,44,-1,-1,-1,-1,-1,-1,-1,-1,-1,-1,-1,-1,-1,-1],"split_conditions":[-5.3948545E-1,-1.195508E0,2.2470036E-1,-1.8164322E0,-8.287932E-1,-1.6111058E-1,7.001458E-1,-3.5383403E-2,-2.6206035E-2,-1.032786E0,-6.786513E-1,-3.5651472E-1,2.139584E-2,3.7346715E-1,1.2073989E0,-1.6013183E-2,-1.20525425E-2,-8.4731495E-3,-5.613918E-3,-4.2854252E-1,-2.7301273E-1,-8.006246E-2,1.3542901E-1,1.3002867E-2,5.585586E-1,2.6149606E-2,3.5830457E-2,-4.7179225E-1,-3.8893077E-1,-3.259546E-1,-2.2154428E-1,4.6299403E-3,6.4524296E-3,8.701833E-3,1.0890557E-2,1.673626E-2,2.0417146E-2,-3.302727E-3,-2.3334888E-3,-1.5184114E-3,-5.582028E-4,2.4068586E-5,9.0155174E-4,1.9299536E-3,2.9848078E-3],"split_indices":[3,3,3,3,3,3,3,0,0,3,3,3,3,3,3,0,0,0,0,3,3,3,3,0,3,0,0,3,3,3,3,0,0,0,0,0,0,0,0,0,0,0,0,0,0],"split_type":[0,0,0,0,0,0,0,0,0,0,0,0,0,0,0,0,0,0,0,0,0,0,0,0,0,0,0,0,0,0,0,0,0,0,0,0,0,0,0,0,0,0,0,0,0],"sum_hessian":[9.29E2,3.25E2,6.04E2,1.22E2,2.03E2,3.88E2,2.16E2,5.9E1,6.3E1,9.3E1,1.1E2,2.04E2,1.84E2,1.61E2,5.5E1,3.3E1,6E1,5.9E1,5.1E1,1.03E2,1.01E2,6.6E1,1.18E2,5.1E1,1.1E2,2.7E1,2.8E1,4.9E1,5.4E1,5.6E1,4.5E1,2.6E1,4E1,5.5E1,6.3E1,7E1,4E1,2.5E1,2.4E1,3.3E1,2.1E1,2.5E1,3.1E1,2.5E1,2E1],"tree_param":{"num_deleted":"0","num_feature":"5","num_nodes":"45","size_leaf_vector":"1"}},{"base_weights":[-9.187106E-4,-3.282065E-1,1.9325526E-1,-5.9990597E-1,-1.960992E-1,7.488961E-2,3.8345397E-1,-3.5874058E-2,-2.6628196E-2,-2.8260222E-1,-1.4651898E-1,-1.5876673E-3,1.601665E-1,3.1137884E-1,5.942165E-1,-1.7392097E-2,-1.28086675E-2,-9.264874E-3,-1.1020983E-1,-2.7576145E-2,3.167187E-2,1.1373386E-1,1.9032563E-1,1.242116E-2,1.736506E-2,2.4890436E-2,3.488531E-2,-6.269306E-3,-3.9075105E-3,-4.3083962E-2,-1.1852824E-2,1.5512501E-2,5.0748225E-2,4.520384E-3,6.341025E-3,8.327628E-3,1.0249169E-2,-2.4555314E-3,-1.6281893E-3,-1.0492465E-3,-2.663306E-4,3.6423438E-4,1.0821054E-3,1.9402057E-3,2.9106974E-3],"categories":[],"categories_nodes":[],"categories_segments":[],"categories_sizes":[],"default_left":[0,0,0,0,0,0,0,0,0,0,0,0,0,0,0,0,0,0,0,0,0,0,0,0,0,0,0,0,0,0,0,0,0,0,0,0,0,0,0,0,0,0,0,0,0],"id":18,"left_children":[1,3,5,7,9,11,13,-1,-1,15,17,19,21,23,25,-1,-1,-1,27,29,31,33,35,-1,-1,-1,-1,-1,-1,37,39,41,43,-1,-1,-1,-1,-1,-1,-1,-1,-1,-1,-1,-1],"loss_changes":[6.0246002E1,1.2552757E1,1.3366514E1,5.2843475E-1,9.836254E-1,2.4002564E0,3.2784653E0,0E0,0E0,5.917406E-2,1.9641256E-1,1.6942453E-1,2.2201777E-1,3.0270195E-1,2.2137642E-1,0E0,0E0,0E0,3.0097842E-2,2.6311114E-2,2.5723286E-2,1.020807E-2,2.0992756E-3,0E0,0E0,0E0,0E0,0E0,0E0,1.8878505E-3,3.225712E-3,2.2631409E-3,1.2187436E-3,0E0,0E0,0E0,0E0,0E0,0E0,0E0,0E0,0E0,0E0,0E0,0E0],"parents":[2147483647,0,0,1,1,2,2,3,3,4,4,5,5,6,6,9,9,10,10,11,11,12,12,13,13,14,14,18,18,19,19,20,20,21,21,22,22,29,29,30,30,31,31,32,32],"right_children":[2,4,6,8,10,12,14,-1,-1,16,18,20,22,24,26,-1,-1,-1,28,30,32,34,36,-1,-1,-1,-1,-1,-1,38,40,42,44,-1,-1,-1,-1,-1,-1,-1,-1,-1,-1,-1,-1],"split_conditions":[-4.9746525E-1,-1.4368734E0,2.1592617E-1,-1.9288889E0,-8.960703E-1,-1.6111058E-1,6.68379E-1,-3.5874058E-2,-2.6628196E-2,-1.0962434E0,-7.184728E-1,-3.393733E-1,3.375097E-2,3.6398947E-1,1.2073989E0,-1.7392097E-2,-1.28086675E-2,-9.264874E-3,-5.898265E-1,-4.043468E-1,-2.6494834E-1,-7.7833466E-2,1.3542901E-1,1.242116E-2,1.736506E-2,2.4890436E-2,3.488531E-2,-6.269306E-3,-3.9075105E-3,-4.3699643E-1,-3.7910232E-1,-3.0839655E-1,-2.1539088E-1,4.520384E-3,6.341025E-3,8.327628E-3,1.0249169E-2,-2.4555314E-3,-1.6281893E-3,-1.0492465E-3,-2.663306E-4,3.6423438E-4,1.0821054E-3,1.9402057E-3,2.9106974E-3],"split_indices":[3,3,3,3,3,3,3,0,0,3,3,3,3,1,3,0,0,0,3,3,3,3,3,0,0,0,0,0,0,3,3,3,3,0,0,0,0,0,0,0,0,0,0,0,0],"split_type":[0,0,0,0,0,0,0,0,0,0,0,0,0,0,0,0,0,0,0,0,0,0,0,0,0,0,0,0,0,0,0,0,0,0,0,0,0,0,0,0,0,0,0,0,0],"sum_hessian":[9.46E2,3.52E2,5.94E2,1.14E2,2.38E2,3.67E2,2.27E2,3.8E1,7.6E1,8.5E1,1.53E2,1.94E2,1.73E2,1.71E2,5.6E1,2.1E1,6.4E1,7.2E1,8.1E1,1.09E2,8.5E1,7E1,1.03E2,6.5E1,1.06E2,3.2E1,2.4E1,5.3E1,2.8E1,5.4E1,5.5E1,4.7E1,3.8E1,2.8E1,4.2E1,4.4E1,5.9E1,3.2E1,2.2E1,2.2E1,3.3E1,2.1E1,2.6E1,1.7E1,2.1E1],"tree_param":{"num_deleted":"0","num_feature":"5","num_nodes":"45","size_leaf_vector":"1"}},{"base_weights":[3.3425034E-3,-3.0395168E-1,1.9473103E-1,-5.7005435E-1,-1.8147767E-1,1.03232995E-1,3.9976463E-1,-3.601555E-2,-5.2365196E-1,-2.4117614E-1,-1.0802218E-1,9.538751E-3,1.8105406E-1,3.4111065E-1,3.1082336E-2,-2.7211104E-2,-1.9226002E-2,-1.4739551E-2,-1.0223828E-2,-1.2834693E-1,-3.5975282E-3,-1.3839581E-2,5.022123E-2,1.3068508E-1,2.069097E-1,1.5096541E-2,1.9746354E-2,-6.915122E-3,-5.3500426E-3,-3.2227844E-2,-5.806758E-4,3.2063894E-2,7.027285E-2,4.9084392E-3,7.0562833E-3,9.319059E-3,1.1340528E-2,-2.0931864E-3,-1.2641186E-3,-3.519699E-4,3.7817724E-4,4.9645687E-4,1.8013873E-3,2.5233445E-3,3.8650539E-3],"categories":[],"categories_nodes":[],"categories_segments":[],"categories_sizes":[],"default_left":[0,0,0,0,0,0,0,0,0,0,0,0,0,0,0,0,0,0,0,0,0,0,0,0,0,0,0,0,0,0,0,0,0,0,0,0,0,0,0,0,0,0,0,0,0],"id":19,"left_children":[1,3,5,7,9,11,13,-1,15,17,19,21,23,25,-1,-1,-1,-1,-1,27,-1,29,31,33,35,-1,-1,-1,-1,37,39,41,43,-1,-1,-1,-1,-1,-1,-1,-1,-1,-1,-1,-1],"loss_changes":[5.5166576E1,1.1629185E1,1.0802113E1,4.1067505E-1,1.0614719E0,2.9221182E0,2.1044884E0,0E0,4.8311234E-2,2.0732117E-1,7.361102E-2,1.7474425E-1,2.581687E-1,1.8227577E-1,0E0,0E0,0E0,0E0,0E0,2.89917E-4,0E0,2.850685E-2,2.2140399E-2,1.2286544E-2,1.6147137E-2,0E0,0E0,0E0,0E0,2.2209436E-3,3.6827296E-3,2.8886124E-3,4.1407347E-4,0E0,0E0,0E0,0E0,0E0,0E0,0E0,0E0,0E0,0E0,0E0,0E0],"parents":[2147483647,0,0,1,1,2,2,3,3,4,4,5,5,6,6,8,8,9,9,10,10,11,11,12,12,13,13,19,19,21,21,22,22,23,23,24,24,29,29,30,30,31,31,32,32],"right_children":[2,4,6,8,10,12,14,-1,16,18,20,22,24,26,-1,-1,-1,-1,-1,28,-1,30,32,34,36,-1,-1,-1,-1,38,40,42,44,-1,-1,-1,-1,-1,-1,-1,-1,-1,-1,-1,-1],"split_conditions":[-4.737328E-1,-1.4351901E0,3.5101134E-1,-1.990712E0,-7.7194446E-1,-1.021049E-1,1.0631449E0,-3.601555E-2,-1.5584042E0,-1.004297E0,-5.9147143E-1,-2.9596227E-1,1.1430454E-1,5.643339E-1,3.1082336E-2,-2.7211104E-2,-1.9226002E-2,-1.4739551E-2,-1.0223828E-2,-6.5640664E-1,-3.5975282E-3,-3.8578174E-1,-1.9789085E-1,-2.0996831E-2,2.1779571E-1,1.5096541E-2,1.9746354E-2,-6.915122E-3,-5.3500426E-3,-4.3707344E-1,-3.3853596E-1,-2.8145677E-1,-1.4229043E-1,4.9084392E-3,7.0562833E-3,9.319059E-3,1.1340528E-2,-2.0931864E-3,-1.2641186E-3,-3.519699E-4,3.7817724E-4,4.9645687E-4,1.8013873E-3,2.5233445E-3,3.8650539E-3],"split_indices":[2,0,2,1,1,2,2,0,1,2,1,1,2,1,0,0,0,0,0,2,0,1,1,1,2,0,0,0,0,2,1,2,1,0,0,0,0,0,0,0,0,0,0,0,0],"split_type":[0,0,0,0,0,0,0,0,0,0,0,0,0,0,0,0,0,0,0,0,0,0,0,0,0,0,0,0,0,0,0,0,0,0,0,0,0,0,0,0,0,0,0,0,0],"sum_hessian":[9.36E2,3.59E2,5.77E2,1.12E2,2.47E2,4E2,1.77E2,2.3E1,8.9E1,1.35E2,1.12E2,1.82E2,2.18E2,1.42E2,3.5E1,7.5E1,1.4E1,5.2E1,8.3E1,7E1,4.2E1,1.16E2,6.6E1,7.6E1,1.42E2,8.6E1,5.6E1,4.4E1,2.6E1,4.8E1,6.8E1,3.6E1,3E1,2.1E1,5.5E1,7.5E1,6.7E1,1.8E1,3E1,3.8E1,3E1,6E0,3E1,1E1,2E1],"tree_param":{"num_deleted":"0","num_feature":"5","num_nodes":"45","size_leaf_vector":"1"}},{"base_weights":[-3.6574644E-3,-3.024435E-1,1.6785567E-1,-5.4206717E-1,-1.7769173E-1,5.3982798E-2,3.1803134E-1,-3.3408996E-2,-4.900481E-1,-2.5537765E-1,-1.3641801E-1,-5.576936E-3,1.3042836E-1,2.6350635E-1,5.2807325E-1,-2.5800144E-2,-1.880009E-2,-1.5150848E-2,-1.1583723E-2,-8.522241E-3,-1.0719133E-1,-3.2254465E-2,2.4930865E-2,9.514087E-2,7.750542E-3,1.0660304E-2,1.5407942E-2,2.2174526E-2,3.0589933E-2,-6.0362513E-3,-4.363766E-3,-4.619745E-2,-1.5376818E-2,9.302593E-3,4.2523485E-2,3.659486E-3,5.23348E-3,-2.752937E-3,-1.8193502E-3,-1.115732E-3,-4.4486552E-4,1.2752994E-4,8.2554895E-4,1.5676232E-3,2.465626E-3],"categories":[],"categories_nodes":[],"categories_segments":[],"categories_sizes":[],"default_left":[0,0,0,0,0,0,0,0,0,0,0,0,0,0,0,0,0,0,0,0,0,0,0,0,0,0,0,0,0,0,0,0,0,0,0,0,0,0,0,0,0,0,0,0,0],"id":20,"left_children":[1,3,5,7,9,11,13,-1,15,17,19,21,23,25,27,-1,-1,-1,-1,-1,29,31,33,35,-1,-1,-1,-1,-1,-1,-1,37,39,41,43,-1,-1,-1,-1,-1,-1,-1,-1,-1,-1],"loss_changes":[4.9041687E1,1.0336502E1,1.0380201E1,4.53228E-1,7.0583725E-1,1.5806451E0,2.861412E0,0E0,6.6467285E-2,1.9005299E-2,1.3388705E-1,1.6032317E-1,1.17105246E-1,4.059658E-1,1.04003906E-1,0E0,0E0,0E0,0E0,0E0,1.23743415E-2,2.3998737E-2,2.489911E-2,5.9351325E-3,0E0,0E0,0E0,0E0,0E0,0E0,0E0,2.9517636E-3,2.0041894E-3,2.3914357E-3,1.7150715E-3,0E0,0E0,0E0,0E0,0E0,0E0,0E0,0E0,0E0,0E0],"parents":[2147483647,0,0,1,1,2,2,3,3,4,4,5,5,6,6,8,8,9,9,10,10,11,11,12,12,13,13,14,14,20,20,21,21,22,22,23,23,31,31,32,32,33,33,34,34],"right_children":[2,4,6,8,10,12,14,-1,16,18,20,22,24,26,28,-1,-1,-1,-1,-1,30,32,34,36,-1,-1,-1,-1,-1,-1,-1,38,40,42,44,-1,-1,-1,-1,-1,-1,-1,-1,-1,-1],"split_conditions":[-5.151212E-1,-1.231212E0,1.7345811E-1,-1.9809632E0,-9.066949E-1,-1.6605896E-1,6.495998E-1,-3.3408996E-2,-1.5837575E0,-1.0714144E0,-7.3315215E-1,-3.502186E-1,8.694019E-3,3.7346715E-1,1.2073989E0,-2.5800144E-2,-1.880009E-2,-1.5150848E-2,-1.1583723E-2,-8.522241E-3,-6.42577E-1,-4.1430154E-1,-2.7301273E-1,-1.1089422E-1,7.750542E-3,1.0660304E-2,1.5407942E-2,2.2174526E-2,3.0589933E-2,-6.0362513E-3,-4.363766E-3,-4.700994E-1,-3.8893077E-1,-3.152404E-1,-2.2599581E-1,3.659486E-3,5.23348E-3,-2.752937E-3,-1.8193502E-3,-1.115732E-3,-4.4486552E-4,1.2752994E-4,8.2554895E-4,1.5676232E-3,2.465626E-3],"split_indices":[3,3,3,1,3,3,3,0,0,3,3,3,3,3,3,0,0,0,0,0,3,3,3,3,0,0,0,0,0,0,0,3,3,3,3,0,0,0,0,0,0,0,0,0,0],"split_type":[0,0,0,0,0,0,0,0,0,0,0,0,0,0,0,0,0,0,0,0,0,0,0,0,0,0,0,0,0,0,0,0,0,0,0,0,0,0,0,0,0,0,0,0,0],"sum_hessian":[9.55E2,3.48E2,6.07E2,1.18E2,2.3E2,3.46E2,2.61E2,3.1E1,8.7E1,7.8E1,1.52E2,1.95E2,1.51E2,2.09E2,5.2E1,6.8E1,1.9E1,2.2E1,5.6E1,6.8E1,8.4E1,1.04E2,9.1E1,6.4E1,8.7E1,1.01E2,1.08E2,2.9E1,2.3E1,4.7E1,3.7E1,5.6E1,4.8E1,4.9E1,4.2E1,2.2E1,4.2E1,2.7E1,2.9E1,2.2E1,2.6E1,2.6E1,2.3E1,1.8E1,2.4E1],"tree_param":{"num_deleted":"0","num_feature":"5","num_nodes":"45","size_leaf_vector":"1"}},{"base_weights":[1.7008247E-3,-2.835439E-1,1.6094796E-1,-5.037046E-1,-1.6271664E-1,6.603624E-2,3.3087665E-1,-2.8171066E-2,-2.0119581E-2,-2.0642862E-1,-1.03649706E-1,-4.1845203E-3,1.4071402E-1,2.787618E-1,2.7790934E-2,-1.1753593E-2,-8.495864E-3,-5.72063E-3,-3.595352E-3,-2.722358E-2,2.6232699E-2,1.01108626E-1,1.662307E-1,2.358496E-1,1.6445875E-2,-3.8814113E-2,-1.1147795E-2,1.187135E-2,4.2406164E-2,3.9235367E-3,5.622156E-3,7.335588E-3,8.9343935E-3,1.0421424E-2,1.2905428E-2,-2.2775417E-3,-1.476072E-3,-7.6078513E-4,-1.8549287E-4,2.7168394E-4,8.7883294E-4,1.5394709E-3,2.4304655E-3],"categories":[],"categories_nodes":[],"categories_segments":[],"categories_sizes":[],"default_left":[0,0,0,0,0,0,0,0,0,0,0,0,0,0,0,0,0,0,0,0,0,0,0,0,0,0,0,0,0,0,0,0,0,0,0,0,0,0,0,0,0,0,0],"id":21,"left_children":[1,3,5,7,9,11,13,-1,-1,15,17,19,21,23,-1,-1,-1,-1,-1,25,27,29,31,33,-1,35,37,39,41,-1,-1,-1,-1,-1,-1,-1,-1,-1,-1,-1,-1,-1,-1],"loss_changes":[4.310798E1,8.962521E0,9.800239E0,4.9929428E-1,5.492101E-1,2.056209E0,2.4006348E0,0E0,0E0,9.182882E-2,2.4570704E-2,1.4297333E-1,1.7520642E-1,3.076849E-1,0E0,0E0,0E0,0E0,0E0,2.1181218E-2,1.9936588E-2,1.0933876E-2,1.503706E-3,7.2393417E-3,0E0,2.8496236E-3,1.4563939E-3,1.6674814E-3,1.4578253E-3,0E0,0E0,0E0,0E0,0E0,0E0,0E0,0E0,0E0,0E0,0E0,0E0,0E0,0E0],"parents":[2147483647,0,0,1,1,2,2,3,3,4,4,5,5,6,6,9,9,10,10,11,11,12,12,13,13,19,19,20,20,21,21,22,22,23,23,25,25,26,26,27,27,28,28],"right_children":[2,4,6,8,10,12,14,-1,-1,16,18,20,22,24,-1,-1,-1,-1,-1,26,28,30,32,34,-1,36,38,40,42,-1,-1,-1,-1,-1,-1,-1,-1,-1,-1,-1,-1,-1,-1],"split_conditions":[-5.070662E-1,-1.195508E0,2.2470036E-1,-1.7946072E0,-7.590935E-1,-1.6111058E-1,1.039495E0,-2.8171066E-2,-2.0119581E-2,-9.1641974E-1,-6.052135E-1,-3.4477952E-1,5.071809E-2,5.041707E-1,2.7790934E-2,-1.1753593E-2,-8.495864E-3,-5.72063E-3,-3.595352E-3,-4.043468E-1,-2.6494834E-1,-7.7833466E-2,1.43919E-1,3.458661E-1,1.6445875E-2,-4.4748312E-1,-3.5961205E-1,-3.0839655E-1,-2.2599581E-1,3.9235367E-3,5.622156E-3,7.335588E-3,8.9343935E-3,1.0421424E-2,1.2905428E-2,-2.2775417E-3,-1.476072E-3,-7.6078513E-4,-1.8549287E-4,2.7168394E-4,8.7883294E-4,1.5394709E-3,2.4304655E-3],"split_indices":[3,3,3,3,3,3,3,0,0,3,3,3,3,3,0,0,0,0,0,3,3,3,3,3,0,3,3,3,3,0,0,0,0,0,0,0,0,0,0,0,0,0,0],"split_type":[0,0,0,0,0,0,0,0,0,0,0,0,0,0,0,0,0,0,0,0,0,0,0,0,0,0,0,0,0,0,0,0,0,0,0,0,0,0,0,0,0,0,0],"sum_hessian":[9.47E2,3.39E2,6.08E2,1.19E2,2.2E2,3.91E2,2.17E2,7.2E1,4.7E1,1.25E2,9.5E1,2.02E2,1.89E2,1.78E2,3.9E1,6.7E1,5.8E1,6.9E1,2.6E1,1.15E2,8.7E1,7.6E1,1.13E2,9.9E1,7.9E1,6.6E1,4.9E1,4.7E1,4E1,2.8E1,4.8E1,4.9E1,6.4E1,4.9E1,5E1,3.6E1,3E1,3.1E1,1.8E1,2.3E1,2.4E1,1.6E1,2.4E1],"tree_param":{"num_deleted":"0","num_feature":"5","num_nodes":"43","size_leaf_vector":"1"}},{"base_weights":[-2.130791E-3,-2.8296152E-1,1.5572228E-1,-5.0906813E-1,-1.7165759E-1,6.672642E-2,3.3160043E-1,-3.16065E-2,-2.2860246E-2,-2.4396008E-1,-1.2464839E-1,-4.6483283E-3,1.3921168E-1,2.6675507E-1,5.0642145E-1,-1.45526E-2,-1.0592653E-2,-7.895926E-3,-1.009844E-1,-2.9143171E-2,2.3544135E-2,9.991642E-2,1.6522625E-1,1.1209284E-2,1.5006837E-2,2.1111038E-2,2.9894551E-2,-5.644078E-3,-4.0551606E-3,-4.283049E-2,-1.357932E-2,1.06967455E-2,4.3046955E-2,3.8198933E-3,5.544992E-3,7.205269E-3,8.8915285E-3,-2.4959086E-3,-1.6229931E-3,-9.950919E-4,-3.7246203E-4,1.2774765E-4,8.6160545E-4,1.5890271E-3,2.3912704E-3],"categories":[],"categories_nodes":[],"categories_segments":[],"categories_sizes":[],"default_left":[0,0,0,0,0,0,0,0,0,0,0,0,0,0,0,0,0,0,0,0,0,0,0,0,0,0,0,0,0,0,0,0,0,0,0,0,0,0,0,0,0,0,0,0,0],"id":22,"left_children":[1,3,5,7,9,11,13,-1,-1,15,17,19,21,23,25,-1,-1,-1,27,29,31,33,35,-1,-1,-1,-1,-1,-1,37,39,41,43,-1,-1,-1,-1,-1,-1,-1,-1,-1,-1,-1,-1],"loss_changes":[4.1270954E1,8.343412E0,9.306721E0,4.130516E-1,7.3773813E-1,2.0545735E0,2.1321774E0,0E0,0E0,7.139397E-2,9.348798E-2,1.3949071E-1,1.848743E-1,1.430273E-1,1.5575314E-1,0E0,0E0,0E0,1.0713398E-2,2.2425354E-2,2.309221E-2,1.2450993E-2,5.5208206E-3,0E0,0E0,0E0,0E0,0E0,0E0,2.56937E-3,1.8671378E-3,3.0421275E-3,4.7201663E-4,0E0,0E0,0E0,0E0,0E0,0E0,0E0,0E0,0E0,0E0,0E0,0E0],"parents":[2147483647,0,0,1,1,2,2,3,3,4,4,5,5,6,6,9,9,10,10,11,11,12,12,13,13,14,14,18,18,19,19,20,20,21,21,22,22,29,29,30,30,31,31,32,32],"right_children":[2,4,6,8,10,12,14,-1,-1,16,18,20,22,24,26,-1,-1,-1,28,30,32,34,36,-1,-1,-1,-1,-1,-1,38,40,42,44,-1,-1,-1,-1,-1,-1,-1,-1,-1,-1,-1,-1],"split_conditions":[-5.3948545E-1,-1.480614E0,2.696336E-1,-1.990712E0,-9.066949E-1,-1.6111058E-1,6.696383E-1,-3.16065E-2,-2.2860246E-2,-1.0962434E0,-7.454847E-1,-3.502186E-1,8.249713E-2,4.5835948E-1,1.2333215E0,-1.45526E-2,-1.0592653E-2,-7.895926E-3,-6.5348834E-1,-4.2153075E-1,-2.5544244E-1,-5.632975E-2,1.6003777E-1,1.1209284E-2,1.5006837E-2,2.1111038E-2,2.9894551E-2,-5.644078E-3,-4.0551606E-3,-4.700994E-1,-3.8893077E-1,-3.152404E-1,-2.2154428E-1,3.8198933E-3,5.544992E-3,7.205269E-3,8.8915285E-3,-2.4959086E-3,-1.6229931E-3,-9.950919E-4,-3.7246203E-4,1.2774765E-4,8.6160545E-4,1.5890271E-3,2.3912704E-3],"split_indices":[3,2,3,1,3,3,1,0,0,3,3,3,3,3,2,0,0,0,3,3,3,3,3,0,0,0,0,0,0,3,3,3,3,0,0,0,0,0,0,0,0,0,0,0,0],"split_type":[0,0,0,0,0,0,0,0,0,0,0,0,0,0,0,0,0,0,0,0,0,0,0,0,0,0,0,0,0,0,0,0,0,0,0,0,0,0,0,0,0,0,0,0,0],"sum_hessian":[9.29E2,3.34E2,5.95E2,1.09E2,2.25E2,3.96E2,1.99E2,2.9E1,8E1,8.7E1,1.38E2,2E2,1.96E2,1.47E2,5.2E1,3.2E1,5.5E1,5.5E1,8.3E1,1.07E2,9.3E1,8E1,1.16E2,6.8E1,7.9E1,3E1,2.2E1,4.9E1,3.4E1,5.6E1,5.1E1,5.7E1,3.6E1,2.8E1,5.2E1,4.8E1,6.8E1,3.1E1,2.5E1,2.4E1,2.7E1,2.6E1,3.1E1,1.3E1,2.3E1],"tree_param":{"num_deleted":"0","num_feature":"5","num_nodes":"45","size_leaf_vector":"1"}},{"base_weights":[-1.9397603E-3,-2.53857E-1,1.511484E-1,-4.7668523E-1,-1.5293059E-1,6.8403035E-2,3.0984727E-1,-3.0407006E-2,-2.1720184E-2,-2.1947978E-1,-1.1057032E-1,8.7152264E-4,1.3627292E-1,2.5846317E-1,2.4871157E-2,-1.3798818E-2,-9.801495E-3,-1.3701192E-1,-8.3063796E-2,-2.1037798E-2,3.4417804E-2,1.01885855E-1,1.574889E-1,2.3109421E-1,1.5961008E-2,-7.4479925E-3,-5.646496E-3,-4.554588E-3,-2.9778476E-3,-3.407784E-2,-7.6528727E-3,2.180618E-2,2.6129845E-3,4.1899527E-3,5.732943E-3,6.925744E-3,8.431638E-3,9.7591495E-3,1.23043535E-2,-1.9697014E-3,-1.3426648E-3,-7.366578E-4,-7.984836E-5,5.8168353E-4,1.3264441E-3],"categories":[],"categories_nodes":[],"categories_segments":[],"categories_sizes":[],"default_left":[0,0,0,0,0,0,0,0,0,0,0,0,0,0,0,0,0,0,0,0,0,0,0,0,0,0,0,0,0,0,0,0,0,0,0,0,0,0,0,0,0,0,0,0,0],"id":23,"left_children":[1,3,5,7,9,11,13,-1,-1,15,17,19,21,23,-1,-1,-1,25,27,29,31,33,35,37,-1,-1,-1,-1,-1,39,41,43,-1,-1,-1,-1,-1,-1,-1,-1,-1,-1,-1,-1,-1],"loss_changes":[3.7138424E1,8.113186E0,7.844632E0,3.638897E-1,6.861305E-1,1.8103068E0,1.847311E0,0E0,0E0,7.440996E-2,1.020807E-1,1.4698435E-1,1.2767649E-1,1.9727516E-1,0E0,0E0,0E0,5.620837E-3,9.483039E-3,2.0858552E-2,1.6636617E-2,8.411467E-3,2.0148754E-3,1.4424324E-2,0E0,0E0,0E0,0E0,0E0,1.2849718E-3,2.5920006E-3,1.9973777E-3,0E0,0E0,0E0,0E0,0E0,0E0,0E0,0E0,0E0,0E0,0E0,0E0,0E0],"parents":[2147483647,0,0,1,1,2,2,3,3,4,4,5,5,6,6,9,9,10,10,11,11,12,12,13,13,17,17,18,18,19,19,20,20,21,21,22,22,23,23,29,29,30,30,31,31],"right_children":[2,4,6,8,10,12,14,-1,-1,16,18,20,22,24,-1,-1,-1,26,28,30,32,34,36,38,-1,-1,-1,-1,-1,40,42,44,-1,-1,-1,-1,-1,-1,-1,-1,-1,-1,-1,-1,-1],"split_conditions":[-4.9746525E-1,-1.4590464E0,2.696336E-1,-2.0150416E0,-8.77246E-1,-1.2446018E-1,1.039495E0,-3.0407006E-2,-2.1720184E-2,-1.0962434E0,-6.91366E-1,-3.259546E-1,9.2977375E-2,5.7550156E-1,2.4871157E-2,-1.3798818E-2,-9.801495E-3,-7.590935E-1,-5.706803E-1,-4.043468E-1,-2.2154428E-1,-1.0571042E-2,1.6003777E-1,3.6508864E-1,1.5961008E-2,-7.4479925E-3,-5.646496E-3,-4.554588E-3,-2.9778476E-3,-4.4748312E-1,-3.6750406E-1,-2.8674138E-1,2.6129845E-3,4.1899527E-3,5.732943E-3,6.925744E-3,8.431638E-3,9.7591495E-3,1.23043535E-2,-1.9697014E-3,-1.3426648E-3,-7.366578E-4,-7.984836E-5,5.8168353E-4,1.3264441E-3],"split_indices":[3,3,3,3,3,3,3,0,0,3,3,3,3,3,0,0,0,3,3,3,3,3,3,3,0,0,0,0,0,3,3,3,0,0,0,0,0,0,0,0,0,0,0,0,0],"split_type":[0,0,0,0,0,0,0,0,0,0,0,0,0,0,0,0,0,0,0,0,0,0,0,0,0,0,0,0,0,0,0,0,0,0,0,0,0,0,0,0,0,0,0,0,0],"sum_hessian":[9.61E2,3.63E2,5.98E2,1.12E2,2.51E2,3.94E2,2.04E2,2.4E1,8.8E1,9.6E1,1.55E2,1.98E2,1.96E2,1.62E2,4.2E1,2.5E1,7.1E1,7.7E1,7.8E1,1.2E2,7.8E1,7.7E1,1.19E2,1.15E2,4.7E1,4.8E1,2.9E1,5.6E1,2.2E1,6E1,6E1,4.7E1,3.1E1,3.5E1,4.2E1,4.9E1,7E1,3.8E1,7.7E1,3.2E1,2.8E1,2.7E1,3.3E1,1.6E1,3.1E1],"tree_param":{"num_deleted":"0","num_feature":"5","num_nodes":"45","size_leaf_vector":"1"}},{"base_weights":[1.6047485E-3,-2.3181956E-1,1.5585786E-1,-4.3367907E-1,-1.3275132E-1,7.987914E-2,3.263561E-1,-2.5440944E-2,-3.6641085E-1,-1.7902938E-1,-8.083318E-2,8.692867E-3,1.3829039E-1,2.658998E-1,2.4571521E-2,-1.9566122E-2,-1.45417815E-2,-1.0701465E-2,-7.557863E-3,-9.590493E-2,-5.291253E-2,-1.0291713E-2,3.8672805E-2,1.0335667E-1,1.6114277E-1,1.1850121E-2,1.597635E-2,-5.247394E-3,-4.0898253E-3,-2.9053588E-3,-2.046929E-3,-2.2608731E-2,5.545626E-4,2.6478413E-2,2.702469E-3,4.369742E-3,5.818881E-3,7.10524E-3,8.725262E-3,-1.3650543E-3,-7.752638E-4,-2.4404873E-4,3.470463E-4,9.383199E-4,1.5579578E-3],"categories":[],"categories_nodes":[],"categories_segments":[],"categories_sizes":[],"default_left":[0,0,0,0,0,0,0,0,0,0,0,0,0,0,0,0,0,0,0,0,0,0,0,0,0,0,0,0,0,0,0,0,0,0,0,0,0,0,0,0,0,0,0,0,0],"id":24,"left_children":[1,3,5,7,9,11,13,-1,15,17,19,21,23,25,-1,-1,-1,-1,-1,27,29,31,33,35,37,-1,-1,-1,-1,-1,-1,39,41,43,-1,-1,-1,-1,-1,-1,-1,-1,-1,-1,-1],"loss_changes":[3.4206226E1,7.5016212E0,7.3837547E0,4.403267E-1,5.982089E-1,1.649555E0,1.6257706E0,0E0,1.6095161E-2,9.836769E-2,4.626465E-2,1.0284619E-1,1.5737867E-1,1.2728024E-1,0E0,0E0,0E0,0E0,0E0,1.3670325E-3,4.2019784E-4,1.4841447E-2,1.1694416E-2,8.326769E-3,8.272886E-3,0E0,0E0,0E0,0E0,0E0,0E0,1.3099499E-3,2.1166776E-3,8.952692E-4,0E0,0E0,0E0,0E0,0E0,0E0,0E0,0E0,0E0,0E0,0E0],"parents":[2147483647,0,0,1,1,2,2,3,3,4,4,5,5,6,6,8,8,9,9,10,10,11,11,12,12,13,13,19,19,20,20,21,21,22,22,23,23,24,24,31,31,32,32,33,33],"right_children":[2,4,6,8,10,12,14,-1,16,18,20,22,24,26,-1,-1,-1,-1,-1,28,30,32,34,36,38,-1,-1,-1,-1,-1,-1,40,42,44,-1,-1,-1,-1,-1,-1,-1,-1,-1,-1,-1],"split_conditions":[-4.700994E-1,-1.195508E0,3.458661E-1,-1.8346514E0,-7.590935E-1,-1.1089422E-1,1.0650814E0,-2.5440944E-2,-1.5208535E0,-9.563068E-1,-5.898265E-1,-2.9373348E-1,1.22546755E-1,5.9579253E-1,2.4571521E-2,-1.9566122E-2,-1.45417815E-2,-1.0701465E-2,-7.557863E-3,-6.6748637E-1,-4.9746525E-1,-3.7910232E-1,-1.9496202E-1,1.5145456E-2,1.916976E-1,1.1850121E-2,1.597635E-2,-5.247394E-3,-4.0898253E-3,-2.9053588E-3,-2.046929E-3,-4.043468E-1,-3.393733E-1,-2.5544244E-1,2.702469E-3,4.369742E-3,5.818881E-3,7.10524E-3,8.725262E-3,-1.3650543E-3,-7.752638E-4,-2.4404873E-4,3.470463E-4,9.383199E-4,1.5579578E-3],"split_indices":[3,3,3,3,3,3,3,0,3,3,3,3,3,3,0,0,0,0,0,3,3,3,3,3,3,0,0,0,0,0,0,3,3,3,0,0,0,0,0,0,0,0,0,0,0],"split_type":[0,0,0,0,0,0,0,0,0,0,0,0,0,0,0,0,0,0,0,0,0,0,0,0,0,0,0,0,0,0,0,0,0,0,0,0,0,0,0,0,0,0,0,0,0],"sum_hessian":[9.48E2,3.77E2,5.71E2,1.23E2,2.54E2,3.96E2,1.75E2,5.5E1,6.8E1,1.33E2,1.21E2,1.79E2,2.17E2,1.3E2,4.5E1,4.8E1,2E1,5.6E1,7.7E1,7.7E1,4.4E1,1.1E2,6.9E1,8.8E1,1.29E2,8.8E1,4.2E1,4.3E1,3.4E1,2.8E1,1.6E1,5.1E1,5.9E1,4E1,2.9E1,4.3E1,4.5E1,5.8E1,7.1E1,2.9E1,2.2E1,3.2E1,2.7E1,1.7E1,2.3E1],"tree_param":{"num_deleted":"0","num_feature":"5","num_nodes":"45","size_leaf_vector":"1"}},{"base_weights":[2.7157087E-3,-2.2347493E-1,1.4123395E-1,-4.0498173E-1,-1.2725273E-1,7.2608836E-2,3.0327526E-1,-4.4493663E-1,-1.4636754E-2,-1.6732039E-1,-7.9967186E-2,5.3214347E-3,1.3434146E-1,2.5593758E-1,2.4400923E-2,-2.7754178E-2,-2.0701876E-2,-9.977619E-3,-7.2878166E-3,-9.55141E-2,-5.1781528E-2,-1.2858529E-2,3.627762E-2,9.647634E-2,1.5300038E-1,1.1220889E-2,1.5261374E-2,-5.1075253E-3,-3.861144E-3,-2.9963104E-3,-2.1923052E-3,-2.37434E-2,1.560295E-3,2.2001602E-2,2.5172418E-3,3.8570066E-3,5.258104E-3,6.9201053E-3,8.396485E-3,-1.6306111E-3,-9.2223997E-4,-1.9958572E-4,2.7754193E-4,3.9075813E-4,1.1928993E-3],"categories":[],"categories_nodes":[],"categories_segments":[],"categories_sizes":[],"default_left":[0,0,0,0,0,0,0,0,0,0,0,0,0,0,0,0,0,0,0,0,0,0,0,0,0,0,0,0,0,0,0,0,0,0,0,0,0,0,0,0,0,0,0,0,0],"id":25,"left_children":[1,3,5,7,9,11,13,15,-1,17,19,21,23,25,-1,-1,-1,-1,-1,27,29,31,33,35,37,-1,-1,-1,-1,-1,-1,39,41,43,-1,-1,-1,-1,-1,-1,-1,-1,-1,-1,-1],"loss_changes":[3.0109829E1,6.323185E0,6.6055603E0,4.3483543E-1,4.4132876E-1,1.7438927E0,1.4230175E0,7.988739E-2,0E0,6.0575962E-2,4.413247E-2,1.14148505E-1,1.3996792E-1,1.5366745E-1,0E0,0E0,0E0,0E0,0E0,7.302165E-4,8.699298E-5,2.012627E-2,1.3954118E-2,4.4840574E-3,8.359671E-3,0E0,0E0,0E0,0E0,0E0,0E0,2.8289147E-3,1.2628674E-3,8.406285E-4,0E0,0E0,0E0,0E0,0E0,0E0,0E0,0E0,0E0,0E0,0E0],"parents":[2147483647,0,0,1,1,2,2,3,3,4,4,5,5,6,6,7,7,9,9,10,10,11,11,12,12,13,13,19,19,20,20,21,21,22,22,23,23,24,24,31,31,32,32,33,33],"right_children":[2,4,6,8,10,12,14,16,-1,18,20,22,24,26,-1,-1,-1,-1,-1,28,30,32,34,36,38,-1,-1,-1,-1,-1,-1,40,42,44,-1,-1,-1,-1,-1,-1,-1,-1,-1,-1,-1],"split_conditions":[-4.7972628E-1,-1.1554914E0,3.5101134E-1,-1.6383357E0,-7.7194446E-1,-1.021049E-1,1.1191355E0,-2.0498967E0,-1.4636754E-2,-9.647375E-1,-5.9147143E-1,-3.0209196E-1,1.03688456E-1,5.8609235E-1,2.4400923E-2,-2.7754178E-2,-2.0701876E-2,-9.977619E-3,-7.2878166E-3,-6.5146464E-1,-5.396538E-1,-3.6917427E-1,-2.1556532E-1,-1.2580724E-2,2.1779571E-1,1.1220889E-2,1.5261374E-2,-5.1075253E-3,-3.861144E-3,-2.9963104E-3,-2.1923052E-3,-4.3239108E-1,-3.5191372E-1,-3.0628613E-1,2.5172418E-3,3.8570066E-3,5.258104E-3,6.9201053E-3,8.396485E-3,-1.6306111E-3,-9.2223997E-4,-1.9958572E-4,2.7754193E-4,3.9075813E-4,1.1928993E-3],"split_indices":[1,1,2,1,1,2,2,2,0,1,1,2,1,1,0,0,0,0,0,2,2,2,1,1,2,0,0,0,0,0,0,1,1,1,0,0,0,0,0,0,0,0,0,0,0],"split_type":[0,0,0,0,0,0,0,0,0,0,0,0,0,0,0,0,0,0,0,0,0,0,0,0,0,0,0,0,0,0,0,0,0,0,0,0,0,0,0,0,0,0,0,0,0],"sum_hessian":[9.59E2,3.64E2,5.95E2,1.25E2,2.39E2,4.19E2,1.76E2,9E1,3.5E1,1.28E2,1.11E2,2.01E2,2.18E2,1.42E2,3.4E1,1.6E1,7.4E1,4.8E1,8E1,7E1,4.1E1,1.27E2,7.4E1,7.4E1,1.44E2,9E1,5.2E1,4.8E1,2.2E1,1.7E1,2.4E1,7.2E1,5.5E1,3.8E1,3.6E1,2.6E1,4.8E1,7.8E1,6.6E1,2.5E1,4.7E1,2.3E1,3.2E1,5E0,3.3E1],"tree_param":{"num_deleted":"0","num_feature":"5","num_nodes":"45","size_leaf_vector":"1"}},{"base_weights":[2.9471936E-3,-2.1607421E-1,1.3338324E-1,-3.9410678E-1,-1.2574853E-1,6.887793E-2,2.8448498E-1,-2.30026E-2,-3.3802745E-1,-1.6713104E-1,-8.108493E-2,6.3193995E-3,1.2561475E-1,2.2668988E-1,4.0325153E-1,-1.807116E-2,-1.2995007E-2,-9.879625E-3,-7.203953E-3,-4.832652E-3,-6.066424E-2,-1.4525472E-2,3.126303E-2,9.968681E-2,7.5076194E-3,1.0177477E-2,1.28579885E-2,1.692522E-2,2.4071602E-2,-3.4424518E-3,-2.3675424E-3,-2.7125973E-2,-3.9929715E-3,1.8930117E-2,4.5540657E-2,3.9365445E-3,5.5428008E-3,-1.6495234E-3,-1.0774687E-3,-4.9415923E-4,5.628923E-5,6.3845643E-4,1.2063032E-3,1.8295579E-3,2.6988692E-3],"categories":[],"categories_nodes":[],"categories_segments":[],"categories_sizes":[],"default_left":[0,0,0,0,0,0,0,0,0,0,0,0,0,0,0,0,0,0,0,0,0,0,0,0,0,0,0,0,0,0,0,0,0,0,0,0,0,0,0,0,0,0,0,0,0],"id":26,"left_children":[1,3,5,7,9,11,13,-1,15,17,19,21,23,25,27,-1,-1,-1,-1,-1,29,31,33,35,-1,-1,-1,-1,-1,-1,-1,37,39,41,43,-1,-1,-1,-1,-1,-1,-1,-1,-1,-1],"loss_changes":[2.67116E1,5.5626793E0,5.692069E0,2.771759E-1,4.1709995E-1,1.4615474E0,1.109807E0,0E0,2.8532028E-2,5.5794716E-2,3.037858E-2,1.0288363E-1,1.2245321E-1,3.2265186E-2,1.20503426E-1,0E0,0E0,0E0,0E0,0E0,2.4062544E-3,1.4224887E-2,1.4985532E-2,1.655078E-2,0E0,0E0,0E0,0E0,0E0,0E0,0E0,8.915663E-4,1.8201601E-3,1.2925398E-3,1.1205971E-3,0E0,0E0,0E0,0E0,0E0,0E0,0E0,0E0,0E0,0E0],"parents":[2147483647,0,0,1,1,2,2,3,3,4,4,5,5,6,6,8,8,9,9,10,10,11,11,12,12,13,13,14,14,20,20,21,21,22,22,23,23,31,31,32,32,33,33,34,34],"right_children":[2,4,6,8,10,12,14,-1,16,18,20,22,24,26,28,-1,-1,-1,-1,-1,30,32,34,36,-1,-1,-1,-1,-1,-1,-1,38,40,42,44,-1,-1,-1,-1,-1,-1,-1,-1,-1,-1],"split_conditions":[-4.866106E-1,-1.195508E0,3.1975266E-1,-1.8442268E0,-8.011616E-1,-9.381465E-2,7.001458E-1,-2.30026E-2,-1.5610507E0,-9.7890764E-1,-6.5348834E-1,-3.152404E-1,1.43919E-1,5.522837E-1,1.2262967E0,-1.807116E-2,-1.2995007E-2,-9.879625E-3,-7.203953E-3,-4.832652E-3,-5.563166E-1,-3.9854008E-1,-2.2154428E-1,1.5145456E-2,7.5076194E-3,1.0177477E-2,1.28579885E-2,1.692522E-2,2.4071602E-2,-3.4424518E-3,-2.3675424E-3,-4.4748312E-1,-3.5651472E-1,-2.7301273E-1,-1.6605896E-1,3.9365445E-3,5.5428008E-3,-1.6495234E-3,-1.0774687E-3,-4.9415923E-4,5.628923E-5,6.3845643E-4,1.2063032E-3,1.8295579E-3,2.6988692E-3],"split_indices":[3,3,3,3,3,3,3,0,3,3,3,3,3,3,3,0,0,0,0,0,3,3,3,3,0,0,0,0,0,0,0,3,3,3,3,0,0,0,0,0,0,0,0,0,0],"split_type":[0,0,0,0,0,0,0,0,0,0,0,0,0,0,0,0,0,0,0,0,0,0,0,0,0,0,0,0,0,0,0,0,0,0,0,0,0,0,0,0,0,0,0,0,0],"sum_hessian":[9.33E2,3.48E2,5.85E2,1.16E2,2.32E2,4.11E2,1.74E2,5E1,6.6E1,1.19E2,1.13E2,1.96E2,2.15E2,1.19E2,5.5E1,4.8E1,1.8E1,4.8E1,7.1E1,6.2E1,5.1E1,1.07E2,8.9E1,1.07E2,1.08E2,7.2E1,4.7E1,3.3E1,2.2E1,2.9E1,2.2E1,4.8E1,5.9E1,4.9E1,4E1,4E1,6.7E1,2.1E1,2.7E1,2.7E1,3.2E1,2.4E1,2.5E1,2.2E1,1.8E1],"tree_param":{"num_deleted":"0","num_feature":"5","num_nodes":"45","size_leaf_vector":"1"}},{"base_weights":[-3.0415987E-3,-2.1939565E-1,1.1932757E-1,-3.9681923E-1,-1.3465773E-1,4.855223E-2,2.4728219E-1,-2.6216755E-2,-1.7970353E-2,-1.8711385E-1,-9.835993E-2,-3.311011E-3,1.0313393E-1,1.9658434E-1,3.8287485E-1,-1.1618181E-2,-8.286497E-3,-6.0338443E-3,-7.591841E-2,-2.2839738E-2,1.7845683E-2,7.170245E-2,1.1940758E-1,8.179183E-3,1.1086301E-2,1.637841E-2,2.3957929E-2,-4.270497E-3,-3.1259519E-3,-3.694184E-2,-1.33762285E-2,8.171222E-3,3.1096246E-2,2.8866327E-3,3.9487914E-3,5.346465E-3,6.481509E-3,-2.038499E-3,-1.4086494E-3,-9.175834E-4,-2.8470324E-4,1.2365611E-4,6.7035056E-4,1.2437332E-3,1.7918528E-3],"categories":[],"categories_nodes":[],"categories_segments":[],"categories_sizes":[],"default_left":[0,0,0,0,0,0,0,0,0,0,0,0,0,0,0,0,0,0,0,0,0,0,0,0,0,0,0,0,0,0,0,0,0,0,0,0,0,0,0,0,0,0,0,0,0],"id":27,"left_children":[1,3,5,7,9,11,13,-1,-1,15,17,19,21,23,25,-1,-1,-1,27,29,31,33,35,-1,-1,-1,-1,-1,-1,37,39,41,43,-1,-1,-1,-1,-1,-1,-1,-1,-1,-1,-1,-1],"loss_changes":[2.5283396E1,5.1334686E0,5.5121737E0,3.4109306E-1,4.290452E-1,1.1156701E0,1.4164448E0,0E0,0E0,5.3413868E-2,6.1454892E-2,8.4279746E-2,8.964729E-2,9.648037E-2,1.5190029E-1,0E0,0E0,0E0,3.9444566E-3,1.3652131E-2,1.2308728E-2,2.3498535E-3,2.0837784E-3,0E0,0E0,0E0,0E0,0E0,0E0,2.6125833E-4,2.3799445E-3,1.697218E-3,3.178753E-4,0E0,0E0,0E0,0E0,0E0,0E0,0E0,0E0,0E0,0E0,0E0,0E0],"parents":[2147483647,0,0,1,1,2,2,3,3,4,4,5,5,6,6,9,9,10,10,11,11,12,12,13,13,14,14,18,18,19,19,20,20,21,21,22,22,29,29,30,30,31,31,32,32],"right_children":[2,4,6,8,10,12,14,-1,-1,16,18,20,22,24,26,-1,-1,-1,28,30,32,34,36,-1,-1,-1,-1,-1,-1,38,40,42,44,-1,-1,-1,-1,-1,-1,-1,-1,-1,-1,-1,-1],"split_conditions":[-5.3948545E-1,-1.480614E0,2.2470036E-1,-2.0332732E0,-9.066949E-1,-1.6111058E-1,6.68379E-1,-2.6216755E-2,-1.7970353E-2,-1.1142495E0,-7.3315215E-1,-3.502186E-1,2.139584E-2,4.1192123E-1,1.272508E0,-1.1618181E-2,-8.286497E-3,-6.0338443E-3,-6.5348834E-1,-4.3699643E-1,-2.6494834E-1,-7.7833466E-2,1.43919E-1,8.179183E-3,1.1086301E-2,1.637841E-2,2.3957929E-2,-4.270497E-3,-3.1259519E-3,-4.7179225E-1,-3.8893077E-1,-3.152404E-1,-2.2154428E-1,2.8866327E-3,3.9487914E-3,5.346465E-3,6.481509E-3,-2.038499E-3,-1.4086494E-3,-9.175834E-4,-2.8470324E-4,1.2365611E-4,6.7035056E-4,1.2437332E-3,1.7918528E-3],"split_indices":[3,2,3,3,3,3,3,0,0,3,3,3,3,3,3,0,0,0,3,3,3,3,3,0,0,0,0,0,0,3,3,3,3,0,0,0,0,0,0,0,0,0,0,0,0],"split_type":[0,0,0,0,0,0,0,0,0,0,0,0,0,0,0,0,0,0,0,0,0,0,0,0,0,0,0,0,0,0,0,0,0,0,0,0,0,0,0,0,0,0,0,0,0],"sum_hessian":[9.53E2,3.44E2,6.09E2,1.1E2,2.34E2,3.93E2,2.16E2,2.2E1,8.8E1,9.4E1,1.4E2,2.02E2,1.91E2,1.59E2,5.7E1,2.7E1,6.7E1,6.8E1,7.2E1,1.05E2,9.7E1,6.7E1,1.24E2,7.2E1,8.7E1,3.9E1,1.8E1,3.9E1,3.3E1,4.1E1,6.4E1,5.7E1,4E1,2.6E1,4.1E1,6.1E1,6.3E1,2.6E1,1.5E1,3.8E1,2.6E1,2.8E1,2.9E1,2E1,2E1],"tree_param":{"num_deleted":"0","num_feature":"5","num_nodes":"45","size_leaf_vector":"1"}},{"base_weights":[-3.6410098E-3,-2.0181882E-1,1.1445051E-1,-3.6886021E-1,-1.2310539E-1,4.3844398E-2,2.2779527E-1,-2.3104168E-2,-1.6873568E-2,-1.7305927E-1,-8.94077E-2,1.4253453E-5,9.687337E-2,1.8942529E-1,3.787141E-1,-1.0531979E-2,-7.6076137E-3,-5.4404894E-3,-6.876383E-2,-1.6132489E-2,2.2386072E-2,7.082896E-2,5.657961E-3,1.6062276E-1,1.1233081E-2,1.5320114E-2,2.2166112E-2,-7.45318E-2,-2.1958847E-3,-2.5686717E-2,-4.864069E-3,1.2321029E-2,3.6529195E-2,2.7261116E-3,7.6864794E-2,7.24112E-3,8.870914E-3,-3.7548826E-3,-1.071106E-3,-1.5393599E-3,-8.4532576E-4,-5.3011935E-4,-5.883767E-5,2.4516575E-4,8.761698E-4,1.0123794E-3,1.9012578E-3,1.0251418E-3,3.8839884E-3],"categories":[],"categories_nodes":[],"categories_segments":[],"categories_sizes":[],"default_left":[0,0,0,0,0,0,0,0,0,0,0,0,0,0,0,0,0,0,0,0,0,0,0,0,0,0,0,0,0,0,0,0,0,0,0,0,0,0,0,0,0,0,0,0,0,0,0,0,0],"id":28,"left_children":[1,3,5,7,9,11,13,-1,-1,15,17,19,21,23,25,-1,-1,-1,27,29,31,33,-1,35,-1,-1,-1,37,-1,39,41,43,45,-1,47,-1,-1,-1,-1,-1,-1,-1,-1,-1,-1,-1,-1,-1,-1],"loss_changes":[2.1624178E1,4.4907885E0,4.623652E0,1.6593838E-1,3.8179302E-1,8.320864E-1,1.21381E0,0E0,0E0,4.1805983E-2,4.9794197E-2,7.1523845E-2,6.069815E-2,1.4558029E-1,6.9729805E-2,0E0,0E0,0E0,7.04515E-3,1.225608E-2,1.13650635E-2,2.2067428E-3,0E0,1.3740063E-3,0E0,0E0,0E0,1.0421872E-4,0E0,2.2560582E-3,1.1301087E-3,1.8435614E-3,5.820766E-5,0E0,4.7436357E-4,0E0,0E0,0E0,0E0,0E0,0E0,0E0,0E0,0E0,0E0,0E0,0E0,0E0,0E0],"parents":[2147483647,0,0,1,1,2,2,3,3,4,4,5,5,6,6,9,9,10,10,11,11,12,12,13,13,14,14,18,18,19,19,20,20,21,21,23,23,27,27,29,29,30,30,31,31,32,32,34,34],"right_children":[2,4,6,8,10,12,14,-1,-1,16,18,20,22,24,26,-1,-1,-1,28,30,32,34,-1,36,-1,-1,-1,38,-1,40,42,44,46,-1,48,-1,-1,-1,-1,-1,-1,-1,-1,-1,-1,-1,-1,-1,-1],"split_conditions":[-5.1000494E-1,-1.480614E0,2.231544E-1,-1.990712E0,-8.8248736E-1,-1.3498911E-1,7.506077E-1,-2.3104168E-2,-1.6873568E-2,-1.0779656E0,-7.191596E-1,-3.2520476E-1,5.1524986E-2,5.155369E-1,1.2333215E0,-1.0531979E-2,-7.6076137E-3,-5.4404894E-3,-5.847697E-1,-3.90059E-1,-2.4451181E-1,-6.63173E-2,5.657961E-3,3.5101134E-1,1.1233081E-2,1.5320114E-2,2.2166112E-2,-5.4641885E-1,-2.1958847E-3,-4.3707344E-1,-3.7332085E-1,-3.0628613E-1,-2.3146117E-1,2.7261116E-3,-1.27288E-1,7.24112E-3,8.870914E-3,-3.7548826E-3,-1.071106E-3,-1.5393599E-3,-8.4532576E-4,-5.3011935E-4,-5.883767E-5,2.4516575E-4,8.761698E-4,1.0123794E-3,1.9012578E-3,1.0251418E-3,3.8839884E-3],"split_indices":[1,2,2,1,2,2,0,0,0,1,2,2,2,2,2,0,0,0,2,2,2,1,0,2,0,0,0,1,0,2,1,1,1,0,2,0,0,0,0,0,0,0,0,0,0,0,0,0,0],"split_type":[0,0,0,0,0,0,0,0,0,0,0,0,0,0,0,0,0,0,0,0,0,0,0,0,0,0,0,0,0,0,0,0,0,0,0,0,0,0,0,0,0,0,0,0,0,0,0,0,0],"sum_hessian":[9.22E2,3.44E2,5.78E2,1.09E2,2.35E2,3.57E2,2.21E2,2.4E1,8.5E1,9.3E1,1.42E2,1.96E2,1.61E2,1.78E2,4.3E1,3E1,6.3E1,7.1E1,7.1E1,1.14E2,8.2E1,6.4E1,9.7E1,1.01E2,7.7E1,2.3E1,2E1,5.6E1,1.5E1,6.1E1,5.3E1,4.9E1,3.3E1,2E1,4.4E1,5.7E1,4.4E1,5.5E1,1E0,3.7E1,2.4E1,2E1,3.3E1,2.1E1,2.8E1,4E0,2.9E1,1E0,4.3E1],"tree_param":{"num_deleted":"0","num_feature":"5","num_nodes":"49","size_leaf_vector":"1"}},{"base_weights":[-3.2606146E-3,-1.9052564E-1,1.1520558E-1,-3.5347384E-1,-1.1319445E-1,5.100596E-2,2.2885296E-1,-2.3544526E-2,-3.2440966E-1,-1.6687799E-1,-8.33343E-2,2.1068167E-3,9.8333284E-2,1.9326712E-1,1.8905133E-2,-1.6897647E-2,-1.2309735E-2,-1.0209303E-2,-7.2030122E-3,-1.0306201E-1,-5.7870887E-2,-1.504967E-2,2.4383914E-2,7.2186515E-2,1.1394002E-1,1.7207979E-1,1.2252677E-2,-5.5578705E-3,-4.2034457E-3,-3.2754072E-3,-2.1216518E-3,-2.3834417E-2,-3.8887141E-3,1.3458586E-2,3.6717173E-2,3.024302E-3,3.9921664E-3,5.065313E-3,6.2833577E-3,7.256192E-3,9.0729045E-3,-1.3502782E-3,-7.951938E-4,-3.501641E-4,3.330581E-5,4.924346E-4,1.0245299E-3,1.3863145E-3,2.0492196E-3],"categories":[],"categories_nodes":[],"categories_segments":[],"categories_sizes":[],"default_left":[0,0,0,0,0,0,0,0,0,0,0,0,0,0,0,0,0,0,0,0,0,0,0,0,0,0,0,0,0,0,0,0,0,0,0,0,0,0,0,0,0,0,0,0,0,0,0,0,0],"id":29,"left_children":[1,3,5,7,9,11,13,-1,15,17,19,21,23,25,-1,-1,-1,-1,-1,27,29,31,33,35,37,39,-1,-1,-1,-1,-1,41,43,45,47,-1,-1,-1,-1,-1,-1,-1,-1,-1,-1,-1,-1,-1,-1],"loss_changes":[2.0897635E1,4.559347E0,4.1981864E0,2.4651432E-1,3.8524032E-1,8.560713E-1,1.0316505E0,0E0,1.9548416E-2,4.5498133E-2,7.541394E-2,7.0308976E-2,6.849122E-2,1.4435816E-1,0E0,0E0,0E0,0E0,0E0,4.4932365E-3,5.8272183E-3,1.0104114E-2,1.0285426E-2,1.7105937E-3,4.4555664E-3,5.013466E-3,0E0,0E0,0E0,0E0,0E0,1.0291412E-3,6.714223E-4,9.1512594E-4,2.832003E-4,0E0,0E0,0E0,0E0,0E0,0E0,0E0,0E0,0E0,0E0,0E0,0E0,0E0,0E0],"parents":[2147483647,0,0,1,1,2,2,3,3,4,4,5,5,6,6,8,8,9,9,10,10,11,11,12,12,13,13,19,19,20,20,21,21,22,22,23,23,24,24,25,25,31,31,32,32,33,33,34,34],"right_children":[2,4,6,8,10,12,14,-1,16,18,20,22,24,26,-1,-1,-1,-1,-1,28,30,32,34,36,38,40,-1,-1,-1,-1,-1,42,44,46,48,-1,-1,-1,-1,-1,-1,-1,-1,-1,-1,-1,-1,-1,-1],"split_conditions":[-4.9184862E-1,-1.4590464E0,2.696336E-1,-2.0332732E0,-8.960703E-1,-1.2912889E-1,1.0650814E0,-2.3544526E-2,-1.6281832E0,-1.0714144E0,-6.91366E-1,-3.27602E-1,6.641445E-2,5.8591026E-1,1.8905133E-2,-1.6897647E-2,-1.2309735E-2,-1.0209303E-2,-7.2030122E-3,-7.590935E-1,-5.706803E-1,-3.9854008E-1,-2.2599581E-1,-1.7563777E-2,1.7345811E-1,3.6508864E-1,1.2252677E-2,-5.5578705E-3,-4.2034457E-3,-3.2754072E-3,-2.1216518E-3,-4.2153075E-1,-3.502186E-1,-2.6494834E-1,-1.869985E-1,3.024302E-3,3.9921664E-3,5.065313E-3,6.2833577E-3,7.256192E-3,9.0729045E-3,-1.3502782E-3,-7.951938E-4,-3.501641E-4,3.330581E-5,4.924346E-4,1.0245299E-3,1.3863145E-3,2.0492196E-3],"split_indices":[3,3,3,3,3,3,3,0,3,3,3,3,3,3,0,0,0,0,0,3,3,3,3,3,3,3,0,0,0,0,0,3,3,3,3,0,0,0,0,0,0,0,0,0,0,0,0,0,0],"split_type":[0,0,0,0,0,0,0,0,0,0,0,0,0,0,0,0,0,0,0,0,0,0,0,0,0,0,0,0,0,0,0,0,0,0,0,0,0,0,0,0,0,0,0,0,0,0,0,0,0],"sum_hessian":[9.4E2,3.64E2,5.76E2,1.16E2,2.48E2,3.69E2,2.07E2,2E1,9.6E1,8.7E1,1.61E2,1.82E2,1.87E2,1.69E2,3.8E1,7.9E1,1.7E1,3E1,5.7E1,8.9E1,7.2E1,1.03E2,7.9E1,7.2E1,1.15E2,1.23E2,4.6E1,5.9E1,3E1,4.6E1,2.6E1,5.7E1,4.6E1,4.3E1,3.6E1,3.2E1,4E1,6E1,5.5E1,3.6E1,8.7E1,3.9E1,1.8E1,2.7E1,1.9E1,3E1,1.3E1,1.4E1,2.2E1],"tree_param":{"num_deleted":"0","num_feature":"5","num_nodes":"49","size_leaf_vector":"1"}},{"base_weights":[3.6167668E-4,-1.7780502E-1,1.0822253E-1,-3.3686492E-1,-1.0802283E-1,5.3505946E-2,2.3447481E-1,-2.1352397E-2,-1.5389025E-2,-1.5279284E-1,-7.369517E-2,1.2993129E-3,9.801563E-2,1.8204916E-1,3.354182E-1,-9.358108E-3,-6.573073E-3,-9.230327E-2,-5.3805068E-2,-1.4505899E-2,2.1365942E-2,7.2566345E-2,1.1759093E-1,7.924382E-3,1.0148461E-2,1.4233491E-2,2.0805474E-2,-5.0735003E-3,-4.003165E-3,-3.1080141E-3,-2.0017882E-3,-2.2278517E-2,-5.382019E-3,1.0910949E-2,3.2319814E-2,2.981267E-3,4.1242996E-3,5.2619595E-3,6.3859657E-3,-1.2996991E-3,-8.972144E-4,-5.066862E-4,-9.947544E-5,2.7699053E-4,7.493134E-4,1.135462E-3,1.9090545E-3],"categories":[],"categories_nodes":[],"categories_segments":[],"categories_sizes":[],"default_left":[0,0,0,0,0,0,0,0,0,0,0,0,0,0,0,0,0,0,0,0,0,0,0,0,0,0,0,0,0,0,0,0,0,0,0,0,0,0,0,0,0,0,0,0,0,0,0],"id":30,"left_children":[1,3,5,7,9,11,13,-1,-1,15,17,19,21,23,25,-1,-1,27,29,31,33,35,37,-1,-1,-1,-1,-1,-1,-1,-1,39,41,43,45,-1,-1,-1,-1,-1,-1,-1,-1,-1,-1,-1,-1],"loss_changes":[1.8294811E1,3.948348E0,4.0839534E0,1.5446186E-1,3.7448907E-1,9.642085E-1,8.8621044E-1,0E0,0E0,5.4575205E-2,4.8330486E-2,6.1204135E-2,1.0305858E-1,2.6980877E-2,1.2724304E-1,0E0,0E0,6.657839E-5,5.7946444E-3,7.539075E-3,9.381782E-3,7.918775E-3,2.1967888E-3,0E0,0E0,0E0,0E0,0E0,0E0,0E0,0E0,4.6756864E-4,8.019693E-4,9.019887E-4,1.4424734E-3,0E0,0E0,0E0,0E0,0E0,0E0,0E0,0E0,0E0,0E0,0E0,0E0],"parents":[2147483647,0,0,1,1,2,2,3,3,4,4,5,5,6,6,9,9,10,10,11,11,12,12,13,13,14,14,17,17,18,18,19,19,20,20,21,21,22,22,31,31,32,32,33,33,34,34],"right_children":[2,4,6,8,10,12,14,-1,-1,16,18,20,22,24,26,-1,-1,28,30,32,34,36,38,-1,-1,-1,-1,-1,-1,-1,-1,40,42,44,46,-1,-1,-1,-1,-1,-1,-1,-1,-1,-1,-1,-1],"split_conditions":[-4.866106E-1,-1.480614E0,3.116061E-1,-2.0150416E0,-8.5044515E-1,-1.2912889E-1,6.68379E-1,-2.1352397E-2,-1.5389025E-2,-1.0621294E0,-6.814857E-1,-3.3548692E-1,1.22546755E-1,5.2603465E-1,1.272508E0,-9.358108E-3,-6.573073E-3,-7.590935E-1,-5.706803E-1,-3.9854008E-1,-2.4480464E-1,-5.3549246E-3,1.916976E-1,7.924382E-3,1.0148461E-2,1.4233491E-2,2.0805474E-2,-5.0735003E-3,-4.003165E-3,-3.1080141E-3,-2.0017882E-3,-4.3699643E-1,-3.6750406E-1,-2.9817697E-1,-1.9496202E-1,2.981267E-3,4.1242996E-3,5.2619595E-3,6.3859657E-3,-1.2996991E-3,-8.972144E-4,-5.066862E-4,-9.947544E-5,2.7699053E-4,7.493134E-4,1.135462E-3,1.9090545E-3],"split_indices":[3,2,3,3,3,3,3,0,0,3,3,3,3,3,3,0,0,3,3,3,3,3,3,0,0,0,0,0,0,0,0,3,3,3,3,0,0,0,0,0,0,0,0,0,0,0,0],"split_type":[0,0,0,0,0,0,0,0,0,0,0,0,0,0,0,0,0,0,0,0,0,0,0,0,0,0,0,0,0,0,0,0,0,0,0,0,0,0,0,0,0,0,0,0,0,0,0],"sum_hessian":[9.5E2,3.58E2,5.92E2,1.08E2,2.5E2,4.14E2,1.78E2,2.3E1,8.5E1,1.07E2,1.43E2,1.91E2,2.23E2,1.19E2,5.9E1,3.8E1,6.9E1,7.2E1,7.1E1,1.07E2,8.4E1,9.9E1,1.24E2,6E1,5.9E1,3.9E1,2E1,3.7E1,3.5E1,4.2E1,2.9E1,5.7E1,5E1,4.4E1,4E1,4.6E1,5.3E1,6.1E1,6.3E1,2.8E1,2.9E1,2E1,3E1,2E1,2.4E1,1.7E1,2.3E1],"tree_param":{"num_deleted":"0","num_feature":"5","num_nodes":"47","size_leaf_vector":"1"}},{"base_weights":[-1.085911E-3,-1.8103538E-1,9.7017325E-2,-3.038628E-1,-1.00855365E-1,3.4733698E-2,1.9961026E-1,-3.688902E-1,-2.5756264E-1,-1.2926514E-1,-6.884413E-2,-3.5937293E-3,8.167241E-2,1.5666448E-1,3.065531E-1,-2.2065487E-2,-1.6434506E-2,-1.4011477E-2,-2.0968787E-1,-7.1281353E-3,-5.248733E-3,-3.9123134E-3,-2.7110546E-3,-2.166495E-2,1.2151625E-2,5.700255E-2,9.6220635E-2,6.5888106E-3,8.877765E-3,1.2903159E-2,1.8787703E-2,-1.0663982E-2,-2.6381852E-3,-3.0094858E-2,-1.3621542E-2,4.203879E-3,2.5865471E-2,2.3030133E-3,3.2314905E-3,4.2118276E-3,5.17218E-3,-1.7836894E-3,-1.2217222E-3,-8.6135505E-4,-5.0217967E-4,-4.419596E-5,4.5235796E-4,9.671581E-4,1.4567616E-3],"categories":[],"categories_nodes":[],"categories_segments":[],"categories_sizes":[],"default_left":[0,0,0,0,0,0,0,0,0,0,0,0,0,0,0,0,0,0,0,0,0,0,0,0,0,0,0,0,0,0,0,0,0,0,0,0,0,0,0,0,0,0,0,0,0,0,0,0,0],"id":31,"left_children":[1,3,5,7,9,11,13,15,17,19,21,23,25,27,29,-1,-1,-1,31,-1,-1,-1,-1,33,35,37,39,-1,-1,-1,-1,-1,-1,41,43,45,47,-1,-1,-1,-1,-1,-1,-1,-1,-1,-1,-1,-1],"loss_changes":[1.6912083E1,3.2980814E0,3.9547796E0,3.0542088E-1,1.7844367E-1,6.96522E-1,1.0266762E0,9.243488E-3,2.9138088E-2,1.9918919E-2,9.368688E-3,6.1154343E-2,5.696416E-2,6.44722E-2,1.2449789E-1,0E0,0E0,0E0,5.655527E-3,0E0,0E0,0E0,0E0,6.3705817E-3,1.2425594E-2,2.6149303E-3,6.349087E-4,0E0,0E0,0E0,0E0,0E0,0E0,6.441213E-4,5.107047E-4,1.8314775E-3,3.321413E-4,0E0,0E0,0E0,0E0,0E0,0E0,0E0,0E0,0E0,0E0,0E0,0E0],"parents":[2147483647,0,0,1,1,2,2,3,3,4,4,5,5,6,6,7,7,8,8,9,9,10,10,11,11,12,12,13,13,14,14,18,18,23,23,24,24,25,25,26,26,33,33,34,34,35,35,36,36],"right_children":[2,4,6,8,10,12,14,16,18,20,22,24,26,28,30,-1,-1,-1,32,-1,-1,-1,-1,34,36,38,40,-1,-1,-1,-1,-1,-1,42,44,46,48,-1,-1,-1,-1,-1,-1,-1,-1,-1,-1,-1,-1],"split_conditions":[-5.4510206E-1,-1.1651384E0,2.0569016E-1,-1.8539051E0,-8.0404836E-1,-1.6605896E-1,6.4098734E-1,-2.069992E0,-1.5584042E0,-9.29751E-1,-6.6748637E-1,-3.6750406E-1,2.139584E-2,4.1192123E-1,1.2262967E0,-2.2065487E-2,-1.6434506E-2,-1.4011477E-2,4.635307E0,-7.1281353E-3,-5.248733E-3,-3.9123134E-3,-2.7110546E-3,-4.3699643E-1,-2.7301273E-1,-7.7833466E-2,1.3110958E-1,6.5888106E-3,8.877765E-3,1.2903159E-2,1.8787703E-2,-1.0663982E-2,-2.6381852E-3,-4.866106E-1,-4.043468E-1,-3.27602E-1,-2.2599581E-1,2.3030133E-3,3.2314905E-3,4.2118276E-3,5.17218E-3,-1.7836894E-3,-1.2217222E-3,-8.6135505E-4,-5.0217967E-4,-4.419596E-5,4.5235796E-4,9.671581E-4,1.4567616E-3],"split_indices":[3,3,3,3,3,3,3,3,1,3,3,3,3,3,3,0,0,0,4,0,0,0,0,3,3,3,3,0,0,0,0,0,0,3,3,3,3,0,0,0,0,0,0,0,0,0,0,0,0],"split_type":[0,0,0,0,0,0,0,0,0,0,0,0,0,0,0,0,0,0,0,0,0,0,0,0,0,0,0,0,0,0,0,0,0,0,0,0,0,0,0,0,0,0,0,0,0,0,0,0,0],"sum_hessian":[9.56E2,3.37E2,6.19E2,1.32E2,2.05E2,3.86E2,2.33E2,5.2E1,8E1,1.07E2,9.8E1,2.13E2,1.73E2,1.68E2,6.5E1,1.5E1,3.7E1,5.1E1,2.9E1,6.6E1,4.1E1,5.7E1,4.1E1,9.9E1,1.14E2,6.6E1,1.07E2,8E1,8.8E1,4.1E1,2.4E1,2.8E1,1E0,4.7E1,5.2E1,7.3E1,4.1E1,3E1,3.6E1,4.5E1,6.2E1,2.1E1,2.6E1,2.4E1,2.8E1,3.6E1,3.7E1,1.6E1,2.5E1],"tree_param":{"num_deleted":"0","num_feature":"5","num_nodes":"49","size_leaf_vector":"1"}},{"base_weights":[-6.7490706E-4,-1.683254E-1,9.4449036E-2,-2.9819798E-1,-9.7365774E-2,3.935578E-2,1.9317761E-1,-1.8727727E-2,-2.6365522E-1,-1.3271293E-1,-7.179857E-2,-1.583853E-3,8.0943346E-2,1.5047173E-1,2.8328484E-1,-1.3955097E-2,-1.0127666E-2,-7.832034E-3,-5.833735E-3,-4.3361275E-3,-5.6248453E-2,-1.7999658E-2,1.5015623E-2,5.945753E-2,9.608654E-2,6.4466232E-3,8.33482E-3,1.2304577E-2,1.8312613E-2,-2.9601525E-3,-1.8886486E-3,-2.6326688E-2,-9.312636E-3,6.21357E-3,2.4830692E-2,2.3224445E-3,3.3852146E-3,4.2383606E-3,5.168264E-3,-1.5076984E-3,-9.247564E-4,-7.048005E-4,-2.3579183E-4,1.6475444E-4,5.8526674E-4,1.0195858E-3,1.5601777E-3],"categories":[],"categories_nodes":[],"categories_segments":[],"categories_sizes":[],"default_left":[0,0,0,0,0,0,0,0,0,0,0,0,0,0,0,0,0,0,0,0,0,0,0,0,0,0,0,0,0,0,0,0,0,0,0,0,0,0,0,0,0,0,0,0,0,0,0],"id":32,"left_children":[1,3,5,7,9,11,13,-1,15,17,19,21,23,25,27,-1,-1,-1,-1,-1,29,31,33,35,37,-1,-1,-1,-1,-1,-1,39,41,43,45,-1,-1,-1,-1,-1,-1,-1,-1,-1,-1,-1,-1],"loss_changes":[1.5022569E1,3.1135216E0,3.2614036E0,2.1775532E-1,1.9109917E-1,6.590267E-1,7.847166E-1,0E0,2.4635315E-2,1.7029762E-2,2.5523126E-2,5.3679056E-2,5.6756735E-2,3.0228853E-2,1.1970568E-1,0E0,0E0,0E0,0E0,0E0,1.421079E-3,6.9162026E-3,8.312201E-3,5.6521E-3,3.8337708E-4,0E0,0E0,0E0,0E0,0E0,0E0,9.409748E-4,1.0329359E-3,8.1089325E-4,6.650016E-4,0E0,0E0,0E0,0E0,0E0,0E0,0E0,0E0,0E0,0E0,0E0,0E0],"parents":[2147483647,0,0,1,1,2,2,3,3,4,4,5,5,6,6,8,8,9,9,10,10,11,11,12,12,13,13,14,14,20,20,21,21,22,22,23,23,24,24,31,31,32,32,33,33,34,34],"right_children":[2,4,6,8,10,12,14,-1,16,18,20,22,24,26,28,-1,-1,-1,-1,-1,30,32,34,36,38,-1,-1,-1,-1,-1,-1,40,42,44,46,-1,-1,-1,-1,-1,-1,-1,-1,-1,-1,-1,-1],"split_conditions":[-5.3948545E-1,-1.231212E0,2.4319601E-1,-1.9448432E0,-8.580754E-1,-1.6111058E-1,6.323991E-1,-1.8727727E-2,-1.5855281E0,-1.0541266E0,-7.1318674E-1,-3.502186E-1,6.641445E-2,4.1192123E-1,1.272508E0,-1.3955097E-2,-1.0127666E-2,-7.832034E-3,-5.833735E-3,-4.3361275E-3,-5.706803E-1,-4.2153075E-1,-2.6494834E-1,-4.673073E-2,1.4740491E-1,6.4466232E-3,8.33482E-3,1.2304577E-2,1.8312613E-2,-2.9601525E-3,-1.8886486E-3,-4.6137837E-1,-3.8893077E-1,-2.9817697E-1,-1.9496202E-1,2.3224445E-3,3.3852146E-3,4.2383606E-3,5.168264E-3,-1.5076984E-3,-9.247564E-4,-7.048005E-4,-2.3579183E-4,1.6475444E-4,5.8526674E-4,1.0195858E-3,1.5601777E-3],"split_indices":[3,3,3,2,3,3,3,0,3,3,3,3,3,3,3,0,0,0,0,0,3,3,3,3,3,0,0,0,0,0,0,3,3,3,3,0,0,0,0,0,0,0,0,0,0,0,0],"split_type":[0,0,0,0,0,0,0,0,0,0,0,0,0,0,0,0,0,0,0,0,0,0,0,0,0,0,0,0,0,0,0,0,0,0,0,0,0,0,0,0,0,0,0,0,0,0,0],"sum_hessian":[9.4E2,3.4E2,6E2,1.19E2,2.21E2,3.86E2,2.14E2,3.4E1,8.5E1,9.1E1,1.3E2,1.95E2,1.91E2,1.47E2,6.7E1,6.5E1,2E1,3.3E1,5.8E1,6.4E1,6.6E1,9.8E1,9.7E1,8.1E1,1.1E2,6.7E1,8E1,4.9E1,1.8E1,5.5E1,1.1E1,4.9E1,4.9E1,5.2E1,4.5E1,3.4E1,4.7E1,4.8E1,6.2E1,3.1E1,1.8E1,2.3E1,2.6E1,3.5E1,1.7E1,2.9E1,1.6E1],"tree_param":{"num_deleted":"0","num_feature":"5","num_nodes":"47","size_leaf_vector":"1"}},{"base_weights":[-4.0620283E-4,-1.5709123E-1,9.064819E-2,-2.989233E-1,-9.859537E-2,4.1038916E-2,1.8990937E-1,-2.0229999E-2,-1.3727896E-2,-1.4449893E-1,-7.000926E-2,1.0482005E-3,8.223011E-2,1.5732312E-1,3.1323808E-1,-1.7799409E-1,-6.1899996E-3,-4.6286653E-3,-5.6447666E-2,-1.3675143E-2,2.01769E-2,6.4373754E-2,4.8490814E-3,1.4078487E-1,1.0191585E-2,1.2950829E-2,1.8727493E-2,-9.028845E-3,-2.319038E-3,-3.1535446E-3,-2.0201176E-3,-2.1253655E-2,-4.43996E-3,1.1632972E-2,3.2101095E-2,2.645518E-3,3.5501476E-3,5.923485E-3,7.40302E-3,-1.2376022E-3,-8.0889725E-4,-3.886544E-4,-2.7573624E-5,3.6345274E-4,7.5721566E-4,1.2308937E-3,1.8042149E-3],"categories":[],"categories_nodes":[],"categories_segments":[],"categories_sizes":[],"default_left":[0,0,0,0,0,0,0,0,0,0,0,0,0,0,0,0,0,0,0,0,0,0,0,0,0,0,0,0,0,0,0,0,0,0,0,0,0,0,0,0,0,0,0,0,0,0,0],"id":33,"left_children":[1,3,5,7,9,11,13,-1,-1,15,17,19,21,23,25,27,-1,-1,29,31,33,35,-1,37,-1,-1,-1,-1,-1,-1,-1,39,41,43,45,-1,-1,-1,-1,-1,-1,-1,-1,-1,-1,-1,-1],"loss_changes":[1.3624824E1,2.8826313E0,2.9664683E0,1.5154839E-1,3.1793475E-1,6.6540915E-1,7.5850344E-1,0E0,0E0,4.3828964E-2,4.2511225E-2,5.8293436E-2,4.617524E-2,9.514022E-2,3.9286613E-2,3.1824112E-3,0E0,0E0,8.078963E-3,8.094341E-3,8.795723E-3,3.310591E-3,0E0,2.2666454E-3,0E0,0E0,0E0,0E0,0E0,0E0,0E0,7.3599815E-4,6.9559796E-4,7.1736844E-4,2.1454692E-4,0E0,0E0,0E0,0E0,0E0,0E0,0E0,0E0,0E0,0E0,0E0,0E0],"parents":[2147483647,0,0,1,1,2,2,3,3,4,4,5,5,6,6,9,9,10,10,11,11,12,12,13,13,14,14,15,15,18,18,19,19,20,20,21,21,23,23,31,31,32,32,33,33,34,34],"right_children":[2,4,6,8,10,12,14,-1,-1,16,18,20,22,24,26,28,-1,-1,30,32,34,36,-1,38,-1,-1,-1,-1,-1,-1,-1,40,42,44,46,-1,-1,-1,-1,-1,-1,-1,-1,-1,-1,-1,-1],"split_conditions":[-4.9746525E-1,-1.5190494E0,2.777621E-1,-2.069992E0,-9.066949E-1,-1.2446018E-1,1.0422711E0,-2.0229999E-2,-1.3727896E-2,-1.1142495E0,-7.590935E-1,-3.27602E-1,1.11038044E-1,5.9579253E-1,1.2899163E0,4.635307E0,-6.1899996E-3,-4.6286653E-3,-6.116682E-1,-4.043468E-1,-2.2154428E-1,-5.3549246E-3,4.8490814E-3,3.6508864E-1,1.0191585E-2,1.2950829E-2,1.8727493E-2,-9.028845E-3,-2.319038E-3,-3.1535446E-3,-2.0201176E-3,-4.4748312E-1,-3.5368806E-1,-2.8674138E-1,-1.8223603E-1,2.645518E-3,3.5501476E-3,5.923485E-3,7.40302E-3,-1.2376022E-3,-8.0889725E-4,-3.886544E-4,-2.7573624E-5,3.6345274E-4,7.5721566E-4,1.2308937E-3,1.8042149E-3],"split_indices":[3,1,3,3,3,3,1,0,0,3,3,3,3,3,3,4,0,0,3,3,3,3,0,3,0,0,0,0,0,0,0,3,3,3,3,0,0,0,0,0,0,0,0,0,0,0,0],"split_type":[0,0,0,0,0,0,0,0,0,0,0,0,0,0,0,0,0,0,0,0,0,0,0,0,0,0,0,0,0,0,0,0,0,0,0,0,0,0,0,0,0,0,0,0,0,0,0],"sum_hessian":[9.53E2,3.5E2,6.03E2,1.01E2,2.49E2,4.03E2,2E2,1.6E1,8.5E1,9.4E1,1.55E2,2.05E2,1.98E2,1.6E2,4E1,3.3E1,6.1E1,5.6E1,9.9E1,1.16E2,8.9E1,9.2E1,1.06E2,1.21E2,3.9E1,2.4E1,1.6E1,3.2E1,1E0,6.8E1,3.1E1,6.3E1,5.3E1,5.3E1,3.6E1,3.7E1,5.5E1,3.4E1,8.7E1,3.5E1,2.8E1,2.8E1,2.5E1,2.5E1,2.8E1,1.5E1,2.1E1],"tree_param":{"num_deleted":"0","num_feature":"5","num_nodes":"47","size_leaf_vector":"1"}},{"base_weights":[1.2817711E-3,-1.5479109E-1,8.601941E-2,-2.599134E-1,-8.515532E-2,4.088265E-2,1.888002E-1,-3.0519125E-1,-1.039253E-2,-1.08579524E-1,-6.089626E-2,-1.006294E-3,8.16233E-2,1.5471405E-1,3.036065E-1,-1.9040318E-2,-1.3856754E-2,-6.0349223E-3,-4.6215598E-3,-3.5382167E-3,-2.4609088E-3,-1.5384405E-2,1.7711531E-2,6.1408307E-2,9.509405E-2,6.9723125E-3,9.741945E-3,1.2612325E-2,1.7374512E-2,-2.3328323E-2,-6.3534547E-3,8.357907E-3,2.8870506E-2,2.459862E-3,3.3971823E-3,4.2070164E-3,5.1562237E-3,-1.4381941E-3,-9.6739456E-4,-5.3040596E-4,-1.5190795E-4,2.1890659E-4,5.80639E-4,1.0433898E-3,1.6496324E-3],"categories":[],"categories_nodes":[],"categories_segments":[],"categories_sizes":[],"default_left":[0,0,0,0,0,0,0,0,0,0,0,0,0,0,0,0,0,0,0,0,0,0,0,0,0,0,0,0,0,0,0,0,0,0,0,0,0,0,0,0,0,0,0,0,0],"id":34,"left_children":[1,3,5,7,9,11,13,15,-1,17,19,21,23,25,27,-1,-1,-1,-1,-1,-1,29,31,33,35,-1,-1,-1,-1,37,39,41,43,-1,-1,-1,-1,-1,-1,-1,-1,-1,-1,-1,-1],"loss_changes":[1.2590524E1,2.4301596E0,2.854663E0,2.5008583E-1,1.08742476E-1,7.339127E-1,6.887293E-1,4.0846825E-2,0E0,8.805037E-3,8.271605E-3,5.7596527E-2,5.3524256E-2,6.288552E-2,7.009268E-3,0E0,0E0,0E0,0E0,0E0,0E0,8.532463E-3,9.465748E-3,3.8396716E-3,2.6704073E-3,0E0,0E0,0E0,0E0,8.28173E-4,7.858882E-4,6.2274816E-4,6.9702417E-4,0E0,0E0,0E0,0E0,0E0,0E0,0E0,0E0,0E0,0E0,0E0,0E0],"parents":[2147483647,0,0,1,1,2,2,3,3,4,4,5,5,6,6,7,7,9,9,10,10,11,11,12,12,13,13,14,14,21,21,22,22,23,23,24,24,29,29,30,30,31,31,32,32],"right_children":[2,4,6,8,10,12,14,16,-1,18,20,22,24,26,28,-1,-1,-1,-1,-1,-1,30,32,34,36,-1,-1,-1,-1,38,40,42,44,-1,-1,-1,-1,-1,-1,-1,-1,-1,-1,-1,-1],"split_conditions":[-5.3948545E-1,-1.1349742E0,3.116061E-1,-1.8048159E0,-8.135341E-1,-1.2446018E-1,1.0650814E0,-2.069992E0,-1.039253E-2,-9.377793E-1,-6.814857E-1,-3.393733E-1,1.11038044E-1,6.0492724E-1,1.2899163E0,-1.9040318E-2,-1.3856754E-2,-6.0349223E-3,-4.6215598E-3,-3.5382167E-3,-2.4609088E-3,-4.1430154E-1,-2.4480464E-1,-1.0571042E-2,1.8838891E-1,6.9723125E-3,9.741945E-3,1.2612325E-2,1.7374512E-2,-4.781541E-1,-3.7910232E-1,-2.9817697E-1,-1.9496202E-1,2.459862E-3,3.3971823E-3,4.2070164E-3,5.1562237E-3,-1.4381941E-3,-9.6739456E-4,-5.3040596E-4,-1.5190795E-4,2.1890659E-4,5.80639E-4,1.0433898E-3,1.6496324E-3],"split_indices":[3,3,3,3,3,3,3,3,0,3,3,3,3,3,3,0,0,0,0,0,0,3,3,3,3,0,0,0,0,3,3,3,3,0,0,0,0,0,0,0,0,0,0,0,0],"split_type":[0,0,0,0,0,0,0,0,0,0,0,0,0,0,0,0,0,0,0,0,0,0,0,0,0,0,0,0,0,0,0,0,0,0,0,0,0,0,0,0,0,0,0,0,0],"sum_hessian":[9.5E2,3.34E2,6.16E2,1.32E2,2.02E2,4.29E2,1.87E2,6.8E1,6.4E1,1.01E2,1.01E2,2.12E2,2.17E2,1.46E2,4.1E1,1.5E1,5.3E1,5.4E1,4.7E1,5.2E1,4.9E1,1.2E2,9.2E1,8.9E1,1.28E2,1.09E2,3.7E1,2.2E1,1.9E1,6.3E1,5.7E1,5.1E1,4.1E1,3.4E1,5.5E1,5.9E1,6.9E1,2.4E1,3.9E1,2.4E1,3.3E1,2.4E1,2.7E1,1.6E1,2.5E1],"tree_param":{"num_deleted":"0","num_feature":"5","num_nodes":"45","size_leaf_vector":"1"}},{"base_weights":[2.4730857E-3,-1.3900295E-1,8.1965216E-2,-2.5601262E-1,-8.2356624E-2,4.133209E-2,1.8572494E-1,-3.027175E-1,-2.1803425E-1,-1.1471331E-1,-5.8824524E-2,1.1702846E-3,7.809977E-2,1.5113428E-1,2.8684825E-1,-1.8668639E-2,-1.3621953E-2,-1.1566878E-2,-8.612512E-3,-6.803464E-3,-4.910409E-3,-7.115243E-2,-4.373748E-2,-1.1412225E-2,1.7889895E-2,6.1537914E-2,4.756732E-3,6.7116553E-3,9.37481E-3,1.2077198E-2,